-0.68 -1.47 -2.91
-12.87 1.18 -19.61
-2.04 2.30 -5.41
1.45 -1.73 1.80
-14.34 0.62 -19.61
-2.61 2.83 -9.06
4.02 -1.78 0.83
-10.70 -0.64 -17.50
-2.97 2.52 -12.02
2.60 -3.39 3.59
-8.84 -1.51 -10.16
-4.53 -0.40 -17.14
2.75 -1.42 3.40
-3.08 -1.23 -4.03
-11.88 -2.51 -18.06
2.32 -0.52 0.22
1.63 -1.12 -2.18
-12.71 -1.73 -19.61
-0.49 0.04 -1.93
-1.24 -0.77 -0.16
-11.11 -4.09 -19.61
-3.52 -0.47 -5.83
1.03 -1.03 1.22
-9.34 -2.92 -12.67
-5.52 -1.48 -14.01
4.74 -2.29 2.07
-7.64 -2.80 -11.00
-5.18 -2.09 -16.53
2.54 -0.97 3.60
-5.34 -0.97 -9.17
-3.64 -2.43 -16.35
0.56 -0.76 2.92
-4.39 -0.72 -3.95
-3.28 -5.56 -18.56
1.29 0.51 1.82
-1.25 -0.26 -2.21
-9.98 -4.56 -19.61
0.47 -2.16 1.56
-0.34 -0.61 1.29
-12.59 -4.33 -19.61
1.64 0.17 -1.08
-2.14 -0.24 -2.74
-13.98 -5.50 -19.61
1.41 -0.64 -3.18
0.79 1.98 2.81
-11.07 -5.06 -19.61
0.75 -1.45 -0.39
0.33 0.15 3.34
-9.60 -4.66 -19.61
-2.63 0.37 -5.99
1.18 -0.66 3.65
-15.51 -2.12 -19.61
3.16 1.03 -8.97
1.65 0.06 5.68
-13.93 -5.94 -19.61
-4.21 -0.05 -6.64
2.11 0.16 3.86
-9.11 -2.33 -11.46
-4.03 -1.78 -12.10
2.05 -0.31 3.05
-7.57 -2.75 -11.45
-5.20 -3.44 -13.44
1.61 -0.94 3.94
-11.34 -3.85 -13.13
-3.68 -0.90 -10.39
2.42 -0.57 3.26
-11.37 -1.17 -16.77
-2.43 -6.01 -8.15
2.76 1.03 2.20
-9.73 -0.96 -14.73
-4.14 -2.02 -13.08
1.57 -0.48 4.01
-6.59 -0.68 -14.01
-5.09 -7.01 -14.40
1.89 -0.09 2.63
-10.65 -2.46 -14.67
-4.91 -2.28 -13.86
1.27 -1.37 4.85
-5.96 -0.40 -14.33
-4.00 -3.18 -14.14
-0.05 0.31 3.36
-4.42 -1.07 -5.74
-4.30 -6.00 -15.53
2.35 -0.81 1.28
-1.84 0.43 -1.98
-8.98 -9.51 -19.61
-1.53 1.32 -3.29
0.96 0.91 2.56
-7.21 -5.04 -19.61
-2.41 -0.52 -2.54
0.66 0.69 2.64
-7.72 -5.27 -19.61
-3.36 -5.36 -6.99
0.62 0.43 5.57
-8.15 -1.28 -18.87
-3.17 -1.10 -11.65
2.92 0.34 3.85
-12.71 -2.23 -17.73
1.61 -0.79 -14.96
1.02 -0.61 7.37
-4.15 0.83 -15.82
-8.88 -3.21 -13.38
2.34 0.82 3.64
-6.54 1.26 -10.57
-4.17 -0.75 -11.65
1.67 1.24 1.93
-5.40 -0.71 -13.51
-2.97 0.30 -12.95
1.81 -0.19 3.67
-10.59 0.55 -19.61
0.28 0.81 -3.86
-1.61 2.42 1.61
-9.45 -1.95 -19.61
0.69 2.37 -0.66
-1.96 1.08 -2.68
-5.96 -2.78 -15.65
2.07 1.70 1.07
-9.17 -0.44 -10.95
-2.95 1.71 -5.68
-3.45 1.35 -3.15
-6.03 1.51 -12.10
1.66 2.03 0.78
-6.16 -1.30 -11.44
-3.56 -0.95 -12.30
-0.06 1.22 -0.23
-2.29 1.18 -2.69
-7.27 -9.62 -17.70
-0.36 3.13 -2.74
-1.43 1.96 -1.98
-7.50 0.54 -18.62
-0.21 2.65 -0.83
-0.16 0.47 -2.66
-7.44 -0.21 -18.63
-1.14 1.53 -3.15
-3.85 1.95 -4.78
-7.01 0.65 -8.46
-9.08 -3.59 -12.59
0.91 0.53 -1.40
-1.73 -0.21 -0.40
-8.08 -6.45 -19.61
-1.63 -1.46 -2.14
-5.39 0.54 -0.23
-9.15 -6.32 -15.39
-2.50 2.12 -1.70
-3.91 0.71 -3.17
-7.98 -10.22 -14.56
-2.11 0.39 -2.15
-2.57 0.60 -3.09
-5.43 -2.63 -17.24
0.78 1.52 1.87
-5.20 0.31 -6.05
-3.50 -4.04 -11.84
1.02 1.64 2.60
-10.82 -2.87 -14.34
-5.00 -0.10 -6.85
-0.36 -2.89 6.27
-8.96 -7.08 -19.61
0.49 -0.92 -1.01
-4.15 3.69 -5.34
-6.03 -2.28 -10.28
0.78 1.83 3.22
-14.73 -7.07 -19.61
1.12 2.07 0.55
-1.94 0.95 -0.23
-10.63 -7.70 -17.92
-1.13 1.67 -1.03
-2.61 0.01 -1.78
-8.64 -12.80 -15.74
-4.21 -1.69 -6.97
1.34 0.72 3.27
-9.40 -0.56 -19.61
-1.79 1.90 -4.30
1.42 -2.55 2.44
-17.38 -1.02 -14.49
-1.74 1.09 -3.34
0.12 -0.31 2.07
-13.36 -0.75 -19.61
0.43 1.50 -2.61
0.16 -1.11 2.82
-13.52 -3.03 -19.61
2.06 1.22 -0.98
-0.11 0.89 -0.17
-15.04 -3.70 -16.45
0.89 1.83 -1.23
-1.41 -0.08 -0.00
-11.30 -0.81 -19.61
4.07 -0.44 -0.91
-0.53 2.02 -2.19
-5.26 -2.12 -17.57
1.42 -1.22 1.38
-8.83 -1.56 -11.61
-3.18 2.01 -13.77
1.85 -3.08 5.12
-11.80 -0.50 -18.86
-3.02 -0.35 -8.20
0.70 -0.60 5.02
-11.30 1.63 -19.61
-3.10 0.07 -10.31
2.28 2.01 4.15
-12.21 -1.89 -17.96
-4.17 -1.26 -9.44
2.29 -1.08 5.13
-16.51 -2.40 -19.08
-2.32 -0.28 -7.99
1.78 0.38 4.48
-16.83 -0.60 -18.81
-0.46 -1.06 -3.49
2.04 -0.91 3.91
-13.51 -0.80 -19.61
0.01 0.60 -1.95
-1.23 -0.08 2.01
-11.33 -8.28 -19.61
-0.24 1.68 -4.59
1.41 -0.08 3.51
-18.89 -6.49 -19.61
-0.91 -2.58 -1.85
-0.79 4.23 1.89
-11.63 -6.61 -19.61
-3.37 0.91 -6.91
2.90 -0.11 1.64
-16.57 -3.79 -17.82
-5.72 -0.76 -8.76
2.59 -0.40 2.01
-7.42 -2.65 -16.38
-4.01 1.30 -10.21
2.26 -1.35 3.88
-11.66 -1.42 -11.85
-4.65 -0.21 -11.54
1.22 1.12 1.55
-6.48 -2.03 -11.14
-5.19 1.37 -12.16
2.12 1.33 3.03
-5.11 -1.91 -9.88
-4.47 -6.00 -14.07
2.18 1.19 1.38
-2.93 1.20 -5.02
-6.38 -3.68 -17.38
1.88 0.34 2.90
-4.81 -0.93 -5.38
-4.81 -5.15 -15.24
-1.81 -0.85 2.44
-9.00 -1.47 -12.12
-2.73 -2.05 -6.81
0.66 0.38 0.79
-15.74 -5.54 -19.61
0.06 -1.57 -0.17
-4.05 1.76 -4.64
-6.53 -3.27 -16.30
0.75 1.59 1.79
-5.93 0.47 -5.69
-2.29 -4.14 -16.36
0.74 -0.00 0.77
-4.79 0.99 -5.63
-3.67 -6.26 -11.07
-2.05 -1.84 1.98
-3.80 0.67 -8.80
-4.32 -1.00 -12.16
0.43 1.20 2.43
-6.62 0.05 -14.95
-3.96 -0.10 -10.70
0.98 -0.17 3.49
-10.56 -1.82 -18.04
-3.78 -0.59 -3.85
-1.17 0.14 1.22
-13.59 -1.26 -19.61
1.22 0.56 1.42
-3.24 1.56 -4.52
-6.05 -5.16 -14.04
-0.76 0.65 0.23
-4.80 1.22 -3.33
-6.69 -4.54 -15.21
3.01 0.53 1.64
-3.28 0.47 -4.40
-3.04 -0.35 -19.61
3.15 1.02 2.94
-11.69 -1.24 -15.87
-5.16 0.99 -14.59
0.39 -0.37 2.51
-15.49 -3.76 -19.61
0.38 -0.05 -0.88
-2.23 0.89 -2.15
-6.42 -1.54 -16.50
2.46 1.23 2.72
-6.34 -1.53 -9.75
-3.90 -2.23 -12.74
-2.21 6.92 0.50
-3.62 -1.68 -5.21
-1.12 -2.51 -14.13
1.62 0.27 3.23
-14.89 -2.69 -14.30
-2.41 -0.89 -6.32
1.21 2.43 0.89
-16.84 -5.27 -19.61
1.66 0.02 1.90
-2.63 0.06 -6.39
-10.62 -4.40 -10.05
1.97 0.34 3.31
-9.72 -0.95 -18.20
-1.60 -0.51 -4.69
-0.35 1.09 1.08
-5.49 -0.46 -19.61
1.63 1.35 -0.13
-5.04 -1.13 -9.69
-1.75 -2.38 -4.16
2.63 0.90 1.76
-14.52 0.38 -18.06
-2.36 -0.73 -2.57
0.70 1.18 1.18
-12.50 -5.12 -19.61
-0.57 0.66 -1.20
0.06 0.35 2.48
-8.70 -3.83 -19.61
0.03 0.58 -0.15
-3.99 0.91 -1.82
0.48 -1.23 -14.15
1.61 -0.43 2.38
-7.83 -1.51 -18.44
-3.25 -1.21 -7.93
0.19 0.45 3.35
-19.61 -4.10 -19.61
-0.73 1.82 -3.55
-1.71 0.92 1.31
-11.05 -11.49 -19.26
4.60 -0.88 1.98
-3.43 0.95 -1.44
-0.53 -2.08 -11.67
2.65 0.76 1.59
-9.06 0.51 -19.61
-2.72 -2.14 -4.71
-0.85 1.32 3.04
-12.98 -7.09 -19.61
-0.87 1.90 -2.49
-2.51 -0.02 -1.95
-8.68 -4.74 -13.94
2.03 -0.62 4.60
-9.10 0.07 -9.74
-3.95 -1.55 -11.11
1.20 1.70 3.19
-14.46 -1.04 -19.61
-1.84 0.45 -2.42
-0.87 -1.20 0.76
-8.74 -7.64 -15.78
3.66 2.57 -1.93
-5.99 -2.07 -15.29
-3.92 -1.60 -7.70
0.76 0.25 2.46
-11.33 -7.29 -19.61
-0.44 0.03 -1.53
-1.58 0.64 -0.98
-6.13 -4.42 -14.89
2.04 1.23 0.47
-5.75 -1.19 -6.01
-3.95 -5.07 -10.88
1.25 -0.08 2.71
-16.59 -2.24 -15.41
-0.02 -1.26 -4.48
0.18 0.45 0.84
-12.78 -6.03 -19.61
2.04 -1.30 1.22
-9.76 -1.09 -9.61
-0.48 -2.53 2.07
1.96 -1.09 5.04
-19.61 -4.86 -19.61
-2.52 -2.04 -2.95
-0.48 1.73 1.87
-7.67 -2.08 -19.49
2.78 -1.48 1.59
-12.20 -0.68 -15.43
-1.59 -0.48 -9.63
2.13 0.89 2.08
-16.48 -2.34 -19.61
-1.40 -0.21 -0.80
-4.81 1.19 -4.20
-1.90 -3.88 -14.29
2.21 0.07 2.84
-16.53 -2.83 -19.60
-2.19 -1.12 -3.07
0.27 -0.96 2.39
-10.41 -2.43 -19.61
-0.09 1.02 -2.46
-1.83 -0.66 -2.21
-6.26 -3.56 -14.62
0.86 0.34 2.91
-10.39 0.12 -10.42
-2.71 0.36 -17.09
2.01 1.00 3.91
-14.10 -1.36 -14.72
2.00 2.92 -5.82
-1.26 0.18 2.36
-12.16 -5.75 -19.61
-1.58 2.07 -5.12
-0.15 0.67 2.16
-14.62 -3.52 -19.61
-1.02 1.04 -5.69
-1.56 -0.34 -1.57
-6.62 -4.91 -16.48
1.14 0.44 1.12
-13.66 -0.38 -15.89
-1.35 1.14 -4.93
0.32 -0.58 3.17
-14.70 -3.81 -19.61
2.04 1.47 0.86
-1.96 -1.89 -2.98
-10.48 -5.67 -17.16
3.01 0.19 1.38
-5.99 0.32 -6.77
-2.21 1.66 -10.76