-5.66	-8.10	-0.37	2.92	-44.35	25.97
-6.35	-7.77	-0.38	12.53	-38.56	30.18
-8.45	-5.59	-3.39	-1.69	-37.22	40.26
-10.31	-5.90	-3.51	32.79	7.58	16.29
-11.25	-7.01	-4.31	23.48	-9.13	-10.73
-11.28	-8.14	-4.53	-9.16	18.31	-27.50
-10.54	-8.78	-5.37	-14.94	-0.89	-3.25
-11.50	-7.94	-5.29	12.35	4.91	13.76
-11.11	-8.52	-4.29	2.11	-42.49	-44.21
-5.57	-7.46	1.64	-39.51	-131.41	3.47
-1.95	-8.46	2.17	18.85	-137.33	51.99
-1.75	-5.63	0.06	-154.29	-31.18	62.04
-13.22	-5.06	-2.43	-131.93	221.40	-12.90
-19.16	-6.30	-18.71	96.10	250.00	-8.32
-18.06	-11.67	-19.61	250.00	250.00	-48.40
-9.52	-14.34	-19.61	88.75	129.15	-141.24
0.86	-16.44	-11.10	-35.55	-205.81	-65.37
0.18	-11.32	-4.20	-23.13	-231.04	-21.36
1.81	-10.21	1.27	-56.07	-227.29	68.06
-3.06	-6.51	2.34	6.55	-250.01	197.42
0.19	-6.60	6.65	59.15	-28.05	112.42
-5.79	-3.59	2.79	-114.82	136.72	-2.82
-10.34	-4.60	-2.99	178.29	250.00	53.87
-13.26	-9.03	-18.64	10.96	250.00	-94.62
-15.85	-8.60	-19.61	-23.45	153.04	-158.85
-7.16	-16.63	-19.61	-19.23	-79.42	-167.58
-2.49	-12.92	-13.85	81.71	-250.01	-98.97
3.21	-12.10	-2.89	47.28	-250.01	-9.25
0.48	-7.69	-0.31	66.94	-210.73	90.62
0.18	-6.68	3.89	-18.04	-70.54	141.22
-2.10	-4.89	4.10	-108.77	-90.71	148.85
-4.15	-5.43	5.30	-45.66	61.72	80.28
-8.94	-6.33	-0.53	66.99	239.79	37.58
-12.94	-6.60	-13.43	125.90	250.00	-17.25
-14.24	-10.30	-19.61	147.05	250.00	-83.03
-7.72	-13.77	-19.61	-60.84	19.65	-109.78
-4.23	-11.96	-17.18	34.66	-208.40	-38.00
-2.00	-11.46	-8.83	-24.41	-250.01	-74.32
0.52	-13.01	2.96	17.69	-195.83	4.84
-2.09	-7.17	3.17	18.47	-250.01	108.85
-0.33	-7.69	6.12	-109.72	-116.41	122.65
-2.43	-7.00	6.60	-172.55	-57.57	62.45
-8.64	-5.60	5.63	36.19	243.96	66.01
-12.32	-4.05	-6.44	170.51	250.00	46.28
-15.28	-5.85	-19.61	89.20	250.00	-127.45
-10.16	-10.52	-19.61	8.32	128.70	-103.24
-5.85	-12.40	-19.61	-33.11	-123.03	-66.54
-3.23	-13.64	-13.08	10.11	-223.45	-56.20
-0.52	-10.30	-3.45	-7.55	-209.54	26.78
-0.95	-9.69	2.91	-7.10	-146.76	68.74
-0.75	-7.64	5.26	-35.58	-96.12	76.60
-2.08	-6.12	4.89	30.26	-35.26	51.71
-5.04	-4.71	2.27	-10.76	71.92	21.69
-6.26	-8.30	-4.88	87.15	207.71	-54.32
-10.91	-10.44	-16.36	140.90	226.38	-96.59
-18.37	-11.07	-19.61	109.94	176.21	-72.65
-12.17	-17.12	-19.61	-105.89	-40.36	-117.78
-6.16	-19.61	-14.74	-27.85	-170.92	-61.16
0.18	-13.76	-12.56	-70.70	-187.48	29.68
-0.16	-11.91	-2.63	-56.45	-228.22	78.49
-0.77	-9.22	1.93	-70.15	-179.81	103.55
-1.89	-7.98	6.27	-41.12	-107.07	120.69
-2.78	-5.86	6.62	-19.95	-59.34	51.19
-7.22	-6.07	5.76	48.62	131.87	17.58
-8.33	-5.22	-3.45	208.92	250.00	18.06
-12.16	-8.84	-17.10	184.15	250.00	-78.08
-19.61	-11.04	-19.61	35.02	169.36	-185.96
-9.51	-19.04	-19.61	-78.66	-71.96	-147.64
0.43	-16.01	-16.27	49.60	-145.94	-60.01
0.64	-10.31	-4.96	0.05	-250.01	77.30
3.96	-10.68	2.20	-93.20	-196.20	79.29
-0.55	-7.03	4.10	1.01	-186.83	174.12
-0.45	-7.41	7.53	-56.86	-55.95	99.44
-5.05	-4.44	6.03	-25.54	61.09	14.74
-6.22	-6.98	0.22	103.31	238.62	6.35
-12.62	-7.71	-15.59	170.15	250.00	-72.24
-19.44	-14.73	-19.61	69.38	250.00	-229.61
-8.47	-18.22	-19.61	-61.48	25.54	-69.07
4.51	-14.47	-19.61	-44.43	-239.33	-31.26
0.91	-12.49	-6.55	-9.95	-250.01	77.65
1.47	-7.60	2.01	-38.84	-250.01	112.91
-0.77	-7.58	6.61	-38.80	-186.82	106.14
-1.89	-5.33	7.35	-29.33	-100.51	58.48
-1.68	-6.91	6.11	0.31	72.45	-8.82
-7.65	-5.91	-1.09	63.11	250.00	-37.79
-13.67	-10.22	-13.27	189.82	250.00	-81.71
-17.44	-14.16	-19.61	47.97	229.51	-122.01
-9.60	-13.69	-19.61	-39.03	-10.22	9.89
-0.56	-14.51	-19.61	-55.38	-250.01	-49.64
-2.82	-11.22	-7.87	-93.53	-250.01	26.76
0.43	-9.88	2.19	-20.14	-187.96	83.94
-1.47	-7.25	4.82	1.02	-161.82	99.88
-2.42	-6.23	6.44	-25.96	-65.74	41.62
-5.54	-5.18	5.25	-12.45	42.60	8.56
-6.91	-6.37	1.87	64.13	224.20	-33.46
-9.42	-6.87	-9.67	146.59	250.00	-71.01
-14.17	-13.16	-19.61	110.32	250.00	-103.27
-15.87	-12.82	-19.61	-153.69	115.93	-160.94
0.06	-19.61	-19.61	-56.02	-247.92	-19.49
-0.44	-12.02	-12.95	7.52	-209.20	66.00
2.51	-11.72	-2.09	-106.92	-250.01	79.74
1.20	-8.20	2.86	-40.92	-206.11	79.15
-1.99	-6.39	7.07	-14.29	-116.88	44.89
-4.01	-5.49	6.73	-55.06	-27.57	-3.79
-7.43	-6.75	5.10	76.56	130.33	-1.51
-7.38	-7.82	-4.73	76.92	250.00	-79.36
-13.76	-11.12	-15.15	139.28	250.00	-81.42
-17.68	-17.66	-19.61	42.08	204.61	-78.07
-9.99	-16.76	-19.61	-30.77	-181.78	36.54
-3.60	-11.77	-19.61	-71.39	-250.01	-2.53
2.62	-15.50	-6.86	-135.63	-250.01	143.38
2.45	-8.27	1.19	22.65	-182.34	116.90
1.03	-6.65	6.63	-37.62	-95.45	47.84
-1.17	-5.37	7.45	-18.68	-43.58	5.64
-3.84	-6.06	5.93	3.11	87.05	-65.55
-6.20	-8.32	0.07	43.79	232.96	-99.62
-11.35	-10.94	-7.36	136.00	250.00	-110.17
-16.81	-13.52	-19.61	65.86	250.00	-45.41
-19.61	-16.02	-19.61	-163.68	36.04	-77.17
-0.48	-18.03	-19.61	-33.13	-141.33	-24.92
-1.78	-11.45	-12.28	-51.45	-174.41	32.67
1.91	-9.99	-3.19	-6.45	-222.66	81.69
0.56	-8.76	1.92	1.85	-238.97	138.50
-1.59	-6.80	7.04	-59.36	-176.18	67.33
-0.02	-4.02	6.35	-103.31	-125.99	80.67
-5.54	-5.92	8.61	29.73	101.80	16.56
-4.85	-7.54	1.40	1.18	200.20	-87.01
-11.25	-9.40	-11.32	250.00	250.00	-71.12
-14.01	-15.46	-19.61	55.72	250.00	-128.23
-14.26	-12.27	-19.61	-45.57	56.24	23.62
-1.32	-17.10	-19.61	-86.72	-250.01	-31.96
2.23	-13.30	-5.03	-90.12	-250.01	23.61
0.33	-10.99	1.15	9.34	-250.01	108.85
2.69	-7.96	7.09	-16.78	-149.98	104.22
-1.57	-4.63	7.57	8.51	-105.38	73.76
-2.51	-7.19	8.36	-18.08	59.21	-18.03
-5.24	-6.84	2.96	87.10	169.57	-47.04
-8.98	-9.96	-5.38	136.44	250.00	-77.52
-13.54	-11.83	-18.08	200.65	250.00	-112.33
-18.64	-16.50	-19.61	33.29	152.89	-115.89
-6.54	-17.79	-19.61	-101.01	-173.30	-21.33
-0.93	-15.78	-17.40	-40.40	-231.35	57.08
3.01	-12.42	-2.74	-116.21	-250.01	104.50
1.95	-8.24	5.77	-3.11	-206.31	118.27
-0.87	-6.09	9.00	19.29	-153.73	91.66
-1.64	-3.58	6.40	65.26	-69.30	137.43
-3.62	-4.24	4.86	-12.24	98.94	-10.96
-6.49	-6.42	-1.81	101.27	250.00	-133.29
-14.00	-11.69	-9.45	109.68	250.00	-179.04
-19.61	-11.69	-19.61	149.53	250.00	-75.40
-17.51	-15.14	-19.61	-229.37	19.81	-182.52
-0.01	-19.61	-19.61	-161.73	-193.91	-31.43
1.39	-14.28	-12.45	-60.57	-250.01	96.62
2.10	-12.53	2.51	-156.12	-249.24	56.61
1.61	-7.45	6.38	-11.08	-160.56	91.59
-0.06	-5.74	7.80	-11.74	-106.98	44.08
-3.94	-5.77	7.38	10.43	28.55	-40.35
-5.83	-5.99	4.71	49.03	163.14	-97.31
-8.73	-9.99	-4.30	156.43	250.00	-161.85
-10.30	-17.09	-19.61	250.00	250.00	-134.47
-17.11	-18.39	-19.61	-111.92	82.06	-136.26
-1.20	-19.61	-19.61	-53.64	-250.01	31.46
-0.87	-13.31	-2.90	-188.28	-250.01	86.88
4.24	-12.30	-0.75	-142.64	-250.01	102.67
0.81	-8.71	5.46	-10.92	-174.19	135.92
-0.53	-6.00	8.56	-32.86	-177.99	77.65
-3.67	-4.84	10.44	32.70	-28.26	57.66
-2.14	-5.08	5.31	7.76	103.02	-53.74
-3.58	-8.48	-0.76	88.85	250.00	-120.65
-7.70	-13.09	-16.82	168.99	250.00	-157.12
-16.09	-19.61	-19.61	156.64	227.97	-136.19
-12.11	-16.16	-19.61	-142.82	-116.37	-35.27
-2.53	-19.04	-18.41	-28.86	-250.01	134.21
2.45	-12.85	-6.55	-164.27	-250.01	131.88
2.36	-11.53	0.99	-74.62	-250.01	90.54
0.55	-7.54	6.23	8.19	-174.77	115.56
-0.04	-5.60	7.62	-27.51	-110.19	58.25
-3.76	-4.40	8.64	21.67	3.40	-16.05
-6.16	-4.17	5.94	47.11	165.41	-74.03
-7.61	-9.11	-5.03	128.92	250.00	-165.43
-13.97	-15.92	-19.61	120.17	250.00	-154.04
-19.60	-19.05	-19.61	29.45	153.61	-70.86
-2.48	-19.61	-19.61	-100.65	-219.30	57.99
-2.77	-12.62	4.13	-219.19	-250.01	43.76
3.28	-11.31	0.13	-108.03	-250.01	89.98
2.01	-8.05	4.29	17.57	-161.31	111.14
0.26	-6.83	8.29	-22.52	-115.71	36.86
-1.48	-4.98	7.25	14.68	0.62	8.65
-4.07	-4.97	4.75	76.46	152.67	-66.81
-5.60	-9.46	-4.29	85.05	250.00	-176.40
-11.18	-14.88	-17.31	122.41	250.00	-166.62
-19.50	-19.61	-19.61	64.82	159.60	-137.23
-13.48	-18.91	-19.61	-71.55	-156.29	61.25
3.43	-13.73	-17.14	-49.37	-232.45	65.20
2.10	-11.44	-4.43	-149.61	-250.01	85.59
4.15	-10.99	1.89	-81.80	-193.29	72.37
0.19	-9.28	6.67	-81.71	-241.06	101.65
-1.76	-7.31	12.57	-46.74	-132.53	233.53
-2.73	-4.64	10.02	133.30	113.64	51.29
-4.34	-6.42	4.76	136.61	209.17	-105.14
-6.23	-8.59	-11.02	200.77	250.00	-191.61
-13.39	-12.99	-19.61	36.96	250.00	-216.42
-11.84	-17.84	-19.61	-123.33	74.41	-140.39
-3.12	-16.46	-19.61	-29.25	-149.33	26.86
-1.19	-13.48	-7.78	-103.21	-250.01	64.33
2.73	-11.21	1.88	-133.40	-231.83	87.08
-0.86	-8.32	4.94	-27.84	-120.44	98.08
-1.87	-5.39	5.34	-27.78	-82.48	78.52
-2.28	-6.59	5.33	-8.14	30.67	-25.44
-5.26	-5.25	2.97	19.49	189.61	-59.29
-11.09	-8.49	-7.40	235.82	250.00	-67.03
-12.47	-14.59	-19.61	164.80	250.00	-155.28
-4.23	-13.73	-19.61	-92.27	37.97	-69.51
7.29	-16.27	-19.61	-35.32	-250.01	30.28
1.11	-11.28	-9.41	-130.31	-250.01	68.02
3.53	-10.13	3.05	-82.16	-250.01	102.90
-0.54	-7.30	6.26	0.77	-195.97	59.06
-1.62	-5.80	6.90	39.10	-140.45	63.94
-2.19	-6.55	6.41	-11.91	17.57	-33.56
-4.17	-5.79	2.65	39.54	194.88	-66.85
-8.35	-8.65	-6.20	176.98	250.00	-72.79
-13.71	-10.84	-19.61	87.12	250.00	-132.17
-11.90	-12.05	-19.61	-154.44	91.27	-162.25
3.79	-19.61	-19.61	-66.83	-250.01	2.05
-1.03	-10.98	-5.83	-177.56	-250.01	17.71
1.34	-9.65	-0.28	-43.54	-250.01	64.34
-1.24	-9.32	7.13	13.44	-134.82	90.13
0.00	-5.80	5.40	-28.50	-132.03	54.37
-3.01	-5.32	7.32	17.08	20.75	33.78
-6.00	-5.14	6.09	-3.06	147.11	-46.47
-8.05	-8.72	-1.13	195.82	250.00	-73.40
-11.32	-11.08	-19.61	121.54	250.00	-182.45
-13.92	-19.61	-19.61	-3.30	161.98	-87.07
-5.44	-17.15	-19.61	-21.74	-227.36	21.38
2.55	-11.57	-10.35	-112.78	-250.01	68.41
1.33	-9.57	1.11	-49.13	-250.01	110.61
2.92	-6.79	6.68	-23.51	-203.76	81.96
-1.26	-4.49	6.66	-39.02	-116.66	44.92
-4.90	-5.64	7.44	-46.59	94.40	-56.66
-10.00	-7.64	1.63	94.69	220.44	-96.09
-11.52	-12.00	-14.87	122.63	250.00	-137.13
-14.94	-19.44	-19.61	73.08	219.37	-131.33
-8.62	-18.12	-19.61	-28.29	-105.29	16.98
-0.60	-13.74	-17.21	-76.63	-250.01	86.76
0.17	-9.55	-3.39	-68.00	-250.01	115.73
-0.33	-8.08	3.53	-123.81	-187.79	57.02
-0.78	-6.06	5.71	-83.49	-97.94	0.92
-2.70	-7.49	7.93	-30.43	26.31	-21.29
-4.65	-7.54	5.46	41.70	121.30	-18.72
-6.18	-8.81	-4.20	201.82	250.00	-9.78
-9.96	-13.23	-17.24	71.41	250.00	-207.75
-12.63	-15.18	-19.61	-6.76	213.02	-83.81
3.85	-15.00	-19.61	-30.27	-250.01	54.36
1.32	-9.77	-7.91	-71.12	-200.62	95.41
0.53	-9.03	-2.45	-69.51	-250.01	80.07
1.01	-6.54	3.40	-77.57	-218.88	63.10
-2.54	-5.52	4.31	-25.14	-171.32	51.78
-4.19	-7.37	6.94	-27.87	17.02	-47.59
-7.03	-6.62	3.44	33.30	171.00	-80.79
-9.85	-10.25	-6.20	190.74	250.00	-88.88
-10.47	-14.63	-19.61	98.83	250.00	-122.32
-14.88	-19.61	-19.61	-5.86	136.17	-35.71
-3.60	-16.26	-19.61	-8.40	-250.01	106.04
-2.38	-11.78	-15.73	-62.95	-219.34	73.41
-1.30	-8.88	-8.02	-85.66	-250.01	110.94
0.33	-7.72	1.72	-41.36	-250.01	109.10
1.97	-7.64	7.78	-53.82	-91.55	124.13
-1.76	-3.22	5.86	57.60	-52.44	82.85
-2.98	-6.82	9.02	-40.90	123.13	-97.58
-6.83	-7.49	1.11	102.28	250.00	-147.93
-10.57	-13.13	-13.96	167.29	250.00	-178.88
-13.50	-18.53	-19.61	-48.42	250.00	-118.98
-9.18	-17.21	-19.61	-5.10	-2.08	39.05
1.85	-13.51	-19.61	-120.88	-250.01	27.94
-2.71	-11.37	-8.16	-64.85	-250.01	65.60
3.40	-7.63	0.23	-90.52	-250.01	130.42
-0.49	-6.22	5.16	5.47	-155.66	92.68
-0.37	-5.47	7.20	-110.84	-61.37	3.81
-4.83	-5.69	9.95	51.49	77.03	-23.53
-4.53	-5.35	1.32	81.93	219.88	-90.36
-10.03	-10.62	-9.12	160.80	250.00	-161.62
-12.86	-15.72	-19.61	60.65	250.00	-133.24
-12.06	-16.37	-19.61	-58.53	64.26	-46.72
0.80	-19.19	-19.61	-89.85	-230.68	19.83
0.99	-14.41	-6.39	-179.27	-250.01	51.90
4.12	-9.02	-1.81	-114.77	-250.01	86.34
1.04	-8.62	7.77	13.95	-166.21	107.36
-1.36	-4.75	8.90	-28.48	-117.57	41.35
-3.21	-5.25	8.95	13.24	61.43	-20.95
-4.51	-5.83	3.49	30.80	187.98	-92.42
-7.21	-10.37	-5.73	144.17	250.00	-124.82
-12.00	-14.26	-19.61	148.02	250.00	-98.24
-14.81	-19.61	-19.61	-19.55	152.69	-61.70
-2.05	-17.95	-19.61	-74.44	-250.01	91.03
-0.61	-11.09	-8.23	-176.17	-242.93	13.38
2.15	-11.51	-3.08	-53.61	-250.01	74.95
1.29	-9.41	3.74	-54.72	-195.43	80.86
-0.93	-7.00	5.86	-26.25	-151.82	65.68
-3.26	-6.53	8.84	-72.84	-42.08	26.67
-3.86	-5.49	6.26	-0.13	123.71	-37.84
-8.01	-8.48	1.01	116.75	250.00	-71.63
-11.89	-10.85	-15.69	236.72	250.00	-113.45
-17.62	-18.79	-19.61	-52.00	209.95	-183.55
-7.18	-19.61	-19.61	10.20	-181.67	87.28
1.09	-12.12	-19.61	-19.35	-207.89	115.48
3.28	-12.20	-4.79	-139.18	-250.01	128.70
1.64	-7.68	3.64	-77.11	-244.98	127.79
-0.05	-6.79	8.69	-65.43	-137.30	16.38
-4.38	-4.61	9.68	-79.66	10.06	-52.74
-6.34	-7.26	8.67	49.29	181.75	-49.75
-5.79	-8.22	-3.38	146.20	250.00	-78.62
-9.43	-13.49	-19.61	211.94	250.00	-141.64
-14.37	-19.61	-19.61	-103.10	142.87	-127.35
-8.25	-19.61	-19.61	-63.99	-250.01	44.76
-1.20	-10.99	-15.57	-148.92	-250.01	74.74
0.93	-10.58	-1.76	-89.82	-250.01	96.58
3.29	-7.47	1.74	-20.78	-117.45	84.57
0.68	-7.96	4.40	-9.81	-80.20	8.10
-0.49	-6.99	3.54	-21.06	-47.16	-15.45
-4.39	-6.52	4.54	0.64	55.48	-53.50
-8.45	-8.54	0.69	60.63	243.93	-99.37
-10.33	-11.86	-12.90	132.74	250.00	-143.22
-5.22	-19.61	-19.61	-82.29	250.00	-180.47
-11.25	-16.37	-19.61	24.83	-81.19	105.65
1.50	-16.07	-19.61	-96.87	-250.01	48.75
-2.01	-14.11	0.48	-31.06	-250.01	150.22
-1.04	-7.93	1.49	-36.39	-213.99	127.90
-0.54	-6.84	4.28	-5.60	-131.92	72.28
-1.94	-6.02	4.66	-2.61	-94.00	24.83
-2.84	-6.41	4.62	-21.18	22.78	-46.59
-6.95	-7.44	2.73	80.75	191.15	-81.89
-10.77	-9.82	-7.82	153.29	250.00	-127.86
-17.17	-15.21	-19.61	126.47	250.00	-117.06
-16.37	-17.12	-19.61	-55.56	33.99	-36.75
-0.42	-19.61	-19.61	-74.37	-248.08	59.15
0.21	-14.73	2.75	-182.51	-250.01	120.01
1.08	-9.56	0.28	-97.11	-250.01	160.29
-0.76	-6.84	5.39	-38.58	-134.67	90.79
-1.72	-4.55	5.78	-85.57	-49.49	-1.36
-5.02	-5.10	7.72	-7.45	62.29	-27.05
-6.38	-5.07	4.53	55.94	225.07	-78.04
-8.17	-7.44	-5.52	155.94	250.00	-135.30
-14.33	-14.54	-19.61	149.56	250.00	-140.68
-12.26	-19.61	-19.61	-142.31	-8.59	-121.34
-1.37	-19.61	-19.61	-29.85	-192.74	77.82
-2.21	-15.42	-10.59	-111.96	-250.01	157.81
-0.31	-9.85	0.51	-91.30	-239.56	166.31
-1.14	-5.84	5.95	-48.14	-180.32	97.94
-2.73	-3.90	9.77	-11.82	-74.36	28.05
-3.64	-3.59	8.94	30.63	59.77	-52.62
-3.13	-6.07	5.00	84.69	200.14	-99.24
-2.18	-8.96	-6.83	135.55	250.00	-169.36
-12.69	-17.11	-19.61	108.37	249.62	-163.34
-19.61	-19.61	-19.61	-48.75	55.22	-70.12
-10.70	-19.61	-19.55	-0.58	-186.51	133.57
-3.61	-11.43	-9.10	-124.87	-211.16	138.80
0.07	-11.56	-2.34	-95.31	-215.96	133.63
-0.40	-8.26	3.61	-61.88	-153.01	90.23
-2.18	-5.42	6.65	-53.48	-100.47	38.22
-4.95	-4.14	8.99	-20.23	1.86	-14.28
-5.64	-2.65	6.97	48.26	158.72	-89.85
-6.59	-6.25	-1.16	183.86	250.00	-132.18
-14.25	-14.48	-19.61	127.52	233.63	-220.15
-19.61	-19.61	-19.61	3.72	67.93	-86.56
-6.58	-19.61	-19.61	-34.39	-114.67	65.30
-3.68	-16.14	-11.17	-124.03	-222.49	108.14
0.45	-12.02	-1.58	-83.25	-169.40	144.31
0.56	-8.74	4.43	-116.32	-133.85	93.66
-1.44	-5.64	7.67	-42.76	-66.84	87.99
-2.99	-3.52	7.07	-13.70	20.04	-4.53
-5.93	-4.27	6.01	55.93	154.58	-94.58
-6.25	-7.83	-5.47	151.59	250.00	-136.67
-12.69	-16.68	-19.61	106.56	201.85	-171.55
-18.75	-19.46	-19.61	-36.26	63.38	-52.77
-11.36	-16.83	-19.61	-38.51	-189.54	54.81
-3.21	-14.83	-11.07	-126.91	-212.89	71.34
0.27	-11.48	-5.13	-96.74	-230.20	108.01
0.09	-9.28	4.13	-51.42	-131.33	133.81
-1.83	-5.86	6.18	-53.03	-53.10	71.18
-4.28	-4.33	7.87	-14.20	9.16	9.65
-4.87	-4.57	6.64	66.90	136.69	-53.99
-5.79	-6.06	-2.91	185.77	250.00	-133.26
-11.62	-12.74	-19.61	133.59	250.00	-197.88
-18.69	-19.61	-19.61	-7.05	108.10	-109.79
-7.71	-18.21	-19.61	-56.31	-131.38	53.51
-3.25	-13.71	-14.14	-67.27	-250.01	106.04
-2.08	-11.60	-0.03	-110.26	-237.32	124.67
0.06	-6.83	1.59	-36.55	-158.49	158.68
-3.24	-6.61	5.98	-55.28	-53.62	117.10
-2.56	-4.36	4.72	-35.57	-21.12	37.22
-4.80	-5.30	5.36	61.14	138.06	-54.90
-5.16	-7.68	-1.42	132.72	216.94	-142.74
-10.68	-10.72	-14.19	149.40	219.89	-187.90
-15.88	-16.19	-19.61	51.05	135.90	-149.09
-12.93	-16.42	-19.61	-24.80	-100.28	-4.91
-5.77	-13.36	-17.59	-82.49	-250.01	43.98
0.63	-11.16	-7.57	-76.04	-250.01	40.51
-0.58	-12.59	2.06	-44.49	-142.61	101.09
-1.08	-9.85	4.87	-20.54	-65.88	126.90
-2.20	-6.42	5.17	-64.16	-19.65	71.88
-5.25	-3.75	6.82	-56.68	44.43	-31.36
-7.23	-3.42	3.72	86.95	237.16	-64.24
-9.55	-7.70	-10.00	97.13	250.00	-150.13
-15.98	-13.28	-19.61	26.13	208.40	-96.35
-9.57	-16.18	-19.61	-64.62	-36.58	-38.64
-3.76	-16.68	-19.61	49.91	-188.73	101.34
-2.56	-11.49	-9.64	-17.30	-250.01	151.71
0.01	-9.08	-1.33	-51.39	-250.01	104.40
0.11	-8.10	4.65	-71.11	-112.71	87.39
-0.88	-6.51	4.82	-134.79	-77.04	27.14
-3.22	-5.62	7.62	-3.43	53.23	10.61
-3.97	-7.16	4.70	88.69	250.00	-57.95
-6.67	-7.43	-8.76	190.95	250.00	-81.93
-13.11	-13.64	-19.61	74.29	250.00	-157.05
-17.66	-15.61	-19.61	10.21	30.18	-34.23
-3.16	-16.10	-19.61	-77.46	-250.01	26.00
-3.84	-11.43	-9.27	-27.83	-250.01	105.68
3.30	-8.77	-2.21	-93.13	-249.78	108.39
0.90	-8.28	4.65	-40.15	-177.39	88.44
0.09	-5.49	7.36	-9.46	-85.85	67.19
-2.94	-3.96	7.73	-17.43	28.31	-3.88
-5.85	-5.12	7.23	36.52	209.44	-69.99
-5.55	-9.50	-3.25	164.24	250.00	-121.30
-12.63	-12.97	-19.61	67.82	250.00	-97.76
-14.22	-16.27	-19.61	-36.52	130.72	-37.30
-5.44	-16.72	-19.61	13.08	-193.52	90.66
-1.12	-9.50	-10.07	-177.10	-250.01	34.59
-0.19	-9.70	-1.70	-3.46	-250.01	62.88
2.17	-8.67	2.49	-70.89	-220.45	22.54
-0.15	-7.34	4.99	15.61	-143.25	78.38
-2.37	-6.76	7.43	-50.63	-63.59	25.01
-4.88	-5.15	7.34	-17.33	91.40	11.00
-5.26	-6.37	1.80	65.92	250.00	-74.40
-10.16	-7.91	-14.99	144.22	250.00	-99.89
-16.86	-15.80	-19.61	127.68	250.00	-135.53
-12.22	-14.53	-19.61	-67.90	-34.45	-31.59
-0.51	-13.80	-19.61	-65.78	-226.63	4.72
1.48	-12.17	-8.52	-131.66	-250.01	28.07
0.59	-11.85	1.79	-25.22	-232.43	68.92
-0.21	-8.38	5.14	-37.06	-186.35	72.55
-2.42	-5.35	7.63	-72.77	-118.68	43.90
-4.27	-6.02	10.04	38.54	78.77	13.48
-3.95	-4.68	3.94	58.28	250.00	-71.93
-7.90	-10.54	-10.23	190.85	250.00	-140.36
-13.24	-15.74	-19.61	13.65	250.00	-134.44
-12.97	-16.89	-19.61	-122.17	-36.54	-46.95
0.21	-15.54	-19.61	20.23	-235.95	113.41
-0.33	-10.99	-9.23	-144.96	-250.01	65.87
0.99	-10.77	2.24	-29.31	-250.01	93.11
1.94	-7.21	2.90	-53.42	-170.77	51.13
-1.04	-7.05	6.85	-47.41	-38.00	41.92
-3.84	-6.36	8.61	-46.53	75.44	-11.47
-6.37	-6.43	4.81	70.87	233.55	-49.66
-9.94	-9.18	-10.19	182.68	250.00	-95.13
-16.64	-14.07	-19.61	100.42	242.10	-99.98
-11.82	-18.89	-19.61	22.09	-54.28	-0.44
-3.62	-15.16	-19.61	-6.84	-239.10	66.68
-4.17	-13.60	-9.26	-91.46	-250.01	104.82
-1.24	-10.27	-0.96	-94.13	-201.61	119.55
-0.85	-7.83	3.27	-102.12	-130.38	87.72
-1.71	-7.81	6.34	-55.44	-71.50	72.61
-1.38	-5.35	5.35	-69.67	24.24	26.44
-3.78	-5.53	5.73	-20.33	128.05	-26.57
-5.56	-6.75	0.96	86.97	250.00	-81.45
-11.58	-10.58	-12.39	188.38	250.00	-142.18
-17.56	-15.16	-19.61	2.08	219.64	-158.34
-11.32	-18.51	-19.61	18.01	-8.19	-8.23
-2.59	-12.23	-19.61	-87.54	-240.09	59.70
-1.75	-10.76	-8.19	4.59	-250.01	134.25
0.83	-7.50	-1.58	-103.96	-250.01	100.44
-0.94	-7.71	4.77	-51.77	-165.15	67.71
-1.20	-6.90	7.91	-17.07	-64.91	32.56
-2.93	-4.81	7.08	-9.16	61.84	-30.07
-7.19	-6.38	4.68	18.72	186.28	-77.80
-10.62	-8.39	-8.94	201.18	250.00	-99.95
-19.61	-13.20	-19.61	-22.89	250.00	-138.09
-17.22	-15.68	-19.61	-99.06	46.11	-48.51
-1.62	-16.83	-19.61	14.98	-206.61	103.82
-0.11	-12.16	-10.07	-125.19	-250.01	72.19
2.24	-8.66	-1.07	-45.41	-250.01	63.51
0.23	-6.83	5.93	-0.46	-175.89	60.08
-0.94	-5.84	7.50	-48.97	-58.69	-18.07
-2.94	-5.59	7.00	-24.82	83.46	-46.84
-4.50	-7.26	3.11	4.52	238.06	-61.36
-10.14	-11.44	-8.84	151.23	250.00	-75.82
-16.80	-16.45	-19.61	59.56	250.00	-87.08
-16.10	-18.30	-19.61	-3.78	4.51	33.23
0.15	-13.83	-19.61	-13.92	-195.86	54.23
-2.05	-13.90	-10.58	-86.50	-250.01	72.57
-0.21	-10.12	-2.99	-51.55	-240.95	95.40
-2.24	-8.11	4.07	-47.49	-214.87	73.73
-2.76	-5.55	6.11	-34.89	-63.42	27.00
-3.99	-5.21	6.49	-44.33	53.41	-10.50
-4.15	-6.16	4.21	24.41	173.38	-32.79
-6.81	-5.79	-2.96	32.28	232.35	-113.67
-13.19	-11.83	-13.64	106.55	250.00	-80.30
-14.45	-13.86	-19.61	8.23	202.30	-65.03
-7.47	-19.61	-19.61	-6.35	-70.41	28.50
-1.95	-13.67	-17.35	3.00	-211.61	36.87
-1.85	-11.73	-5.67	3.23	-250.01	86.25
-1.52	-9.03	0.40	8.29	-190.97	16.98
-1.45	-8.21	2.51	-27.34	-121.30	-3.75
-2.81	-6.47	4.51	12.38	-55.82	16.57
-3.21	-4.42	3.85	-4.44	20.02	17.46
-6.69	-3.87	1.02	5.65	155.08	-20.91
-11.57	-8.63	-4.79	8.39	250.00	-56.48
-16.80	-10.37	-18.53	88.14	250.00	47.14
-19.61	-9.11	-19.61	-115.91	100.56	-46.21
-7.15	-13.47	-19.61	24.40	-157.09	50.70
-3.21	-11.40	-15.43	-100.13	-130.83	-16.39
0.14	-11.07	-3.28	-32.20	-250.01	35.61
-1.51	-7.79	2.89	13.95	-250.01	71.09
1.70	-6.71	6.65	51.43	-154.42	72.17
-2.91	-2.38	8.28	-22.84	15.37	2.27
-4.57	-3.56	5.07	151.72	228.16	-35.57
-5.89	-6.67	-4.33	63.71	250.00	-223.89
-8.72	-19.61	-13.78	114.96	250.00	-198.34
-18.45	-19.61	-19.61	-21.52	163.46	-113.03
-13.71	-19.61	-18.26	34.80	-91.60	40.87
-3.66	-14.78	-14.76	-44.91	-203.99	121.99
-1.98	-13.41	-8.11	-65.64	-250.01	123.23
-3.20	-11.25	1.08	-29.10	-210.05	124.00
-2.73	-6.52	6.24	-28.67	-105.10	107.58
-2.28	-4.54	6.21	74.82	32.49	62.52
-0.68	-4.42	3.49	94.41	137.74	-60.75
-4.10	-3.85	-2.08	116.34	216.46	-146.95
-11.46	-15.78	-8.45	183.66	207.37	-228.19
-18.18	-19.61	-19.61	17.03	125.97	-134.13
-11.11	-19.61	-18.36	29.98	-81.16	30.31
-8.21	-19.61	-11.16	-129.96	-188.34	62.70
-4.49	-14.75	-4.74	-111.00	-160.47	137.10
-3.07	-10.82	-0.19	-154.69	-134.62	128.38
-2.53	-8.48	5.58	-92.02	-143.51	186.53
-0.88	-3.48	6.24	-17.04	-55.84	136.10
-1.89	-2.90	4.16	73.72	25.25	-89.43
-4.30	-7.77	3.32	102.50	152.68	-157.14
-5.41	-13.28	-8.70	127.90	208.77	-250.01
-13.89	-19.61	-19.19	12.50	250.00	-204.18
-18.05	-19.61	-19.61	20.52	1.82	-66.48
-6.43	-19.61	-15.16	-53.96	-155.22	77.30
-3.11	-14.41	-6.62	6.58	-201.17	115.74
-2.38	-8.02	-2.34	28.09	-180.79	95.38
-3.79	-6.72	1.31	138.01	-144.92	45.75
-3.14	-7.69	2.48	5.60	-103.21	8.90
-4.24	-7.53	2.04	-138.29	-6.74	34.90
-6.08	-8.47	2.76	-71.90	77.68	121.98
-8.04	-6.73	-0.66	-85.78	198.94	-30.40
-16.40	-10.84	-6.36	12.51	250.00	-113.36
-18.41	-15.68	-19.61	12.67	250.00	-115.18
-6.24	-19.61	-19.61	-85.98	-15.19	-70.83
-0.28	-14.78	-12.05	41.90	-200.96	55.99
-0.39	-11.49	-6.22	-33.98	-186.90	33.12
-2.04	-8.20	-1.30	27.83	-202.17	85.83
-3.15	-6.51	2.46	-26.29	-87.34	34.38
-5.46	-5.75	4.50	-56.92	20.00	-4.04
-7.12	-5.97	3.44	-8.51	153.74	-17.62
-7.57	-9.55	-1.46	-16.01	250.00	-85.58
-7.34	-14.09	-13.93	-33.46	250.00	-65.19
-2.71	-19.40	-19.61	9.49	137.50	-23.11
-5.71	-15.46	-19.61	47.54	-185.66	92.27
-2.78	-11.54	-14.66	4.87	-240.33	19.02
-3.74	-10.22	-4.00	61.95	-250.01	76.16
-1.10	-8.73	0.41	9.35	-244.58	22.39
-3.05	-7.24	2.84	-9.71	-165.75	76.24
-1.87	-7.29	3.51	-14.29	-57.13	58.32
-3.35	-7.03	1.80	-54.99	101.53	-19.56
-7.87	-8.68	-1.04	29.87	192.47	-26.12
-15.02	-12.21	-9.45	47.44	250.00	-76.44
-15.56	-17.28	-19.61	44.29	250.00	-110.10
-11.64	-14.93	-19.61	-46.72	-3.55	-104.09
3.28	-19.61	-15.52	-4.05	-250.01	27.73
-4.49	-10.46	-2.17	-38.13	-250.01	65.15
-0.73	-9.45	-0.02	-0.05	-250.01	56.63
-2.46	-8.96	4.52	9.89	-157.10	59.62
-2.15	-6.27	4.41	-77.49	-52.53	80.74
-3.63	-4.32	3.83	-59.63	102.33	57.77
-5.71	-7.43	1.65	-68.40	232.76	-10.78
-11.30	-9.68	-8.20	71.83	250.00	-31.90
-12.60	-16.05	-19.61	83.08	250.00	-104.37
-11.89	-15.80	-19.61	71.05	27.47	-81.99
-2.53	-19.29	-19.61	12.59	-250.01	-59.82
-4.63	-12.88	-6.92	-0.50	-250.01	71.22
0.02	-9.78	0.43	25.43	-237.62	104.57
-1.35	-7.26	5.20	-31.96	-164.61	124.84
-0.59	-4.43	6.05	-6.46	-33.20	109.51
-1.92	-5.37	5.21	-36.81	103.31	25.02
-3.18	-5.52	-0.56	-87.27	203.85	-72.73
-8.46	-10.98	-8.03	10.03	250.00	-96.36
-13.83	-13.99	-19.61	22.61	250.00	-93.95
-17.00	-16.08	-19.61	56.14	78.65	-93.04
-4.24	-19.61	-17.74	32.11	-247.57	11.41
-3.37	-14.34	-7.81	61.98	-232.34	66.06
-1.98	-12.81	-1.46	25.27	-247.76	123.94
0.16	-7.30	1.30	-7.16	-184.61	149.17
-1.17	-6.52	5.27	-29.91	-97.61	73.81
-2.70	-5.47	5.02	-85.06	-25.91	53.15
-4.50	-4.52	3.91	-29.63	156.19	20.43
-3.87	-7.06	-0.54	-19.81	250.00	-31.44
-7.91	-11.07	-11.26	113.79	250.00	-96.79
-14.56	-15.89	-19.61	-55.16	244.54	-101.87
-11.62	-17.04	-19.61	59.41	-46.73	-51.53
-2.06	-17.87	-18.92	9.38	-243.40	-28.38
-1.74	-14.45	-7.00	53.42	-250.01	133.85
-0.34	-8.69	-0.47	-44.70	-226.39	127.68
-1.17	-7.41	3.98	-23.57	-143.13	111.85
-2.57	-5.29	6.79	-60.15	-47.88	78.71
-2.96	-3.21	4.84	-5.16	115.53	22.45
-4.53	-4.85	0.82	50.36	250.00	-66.19
-8.34	-10.83	-12.28	131.98	250.00	-168.77
-10.87	-17.87	-19.61	-58.12	250.00	-181.00
-5.80	-18.57	-19.61	61.33	-47.46	-26.39
-3.31	-16.10	-19.61	53.15	-250.01	53.51
-1.61	-14.67	-5.30	-9.84	-250.01	122.80
-0.33	-9.70	0.70	-32.88	-218.03	107.10
-0.05	-7.73	4.33	-44.56	-125.55	74.06
-2.19	-5.61	5.94	-40.36	-3.89	56.12
-3.59	-5.30	5.08	-52.25	114.36	6.65
-3.74	-5.95	-0.21	61.71	250.00	-7.87
-6.79	-10.93	-10.50	119.01	250.00	-105.98
-12.67	-17.19	-19.61	158.66	241.78	-134.24
-7.31	-18.01	-19.61	16.92	-8.92	-64.94
-2.98	-18.74	-19.61	80.06	-218.50	42.50
-0.12	-13.49	-8.42	-51.13	-250.01	90.00
-0.97	-10.91	-0.29	-41.90	-250.01	81.22
0.63	-6.65	2.80	-93.28	-250.01	78.01
-1.87	-7.54	9.15	18.55	-57.50	153.17
-1.03	-4.77	6.86	-59.69	67.97	73.86
-3.88	-6.81	3.93	76.98	221.73	12.11
-6.01	-7.64	-11.69	135.55	250.00	-79.90
-19.61	-12.01	-19.61	63.97	250.00	-108.94
-17.20	-16.22	-19.61	-52.51	23.35	-103.24
-2.05	-19.61	-19.61	-62.78	-141.61	-17.81
-1.80	-15.74	-8.92	-77.52	-250.01	72.99
0.46	-9.08	-3.87	-124.94	-250.01	47.29
0.12	-9.92	4.46	-69.20	-232.37	59.33
-0.34	-6.21	7.25	-10.70	-126.55	64.49
-2.99	-5.06	8.61	3.56	25.93	8.13
-3.56	-4.33	4.84	24.21	186.74	-52.81
-5.92	-7.65	-3.11	107.67	250.00	-122.11
-11.49	-14.38	-18.19	113.09	250.00	-162.34
-17.49	-19.61	-19.61	11.21	163.10	-127.64
-2.06	-19.61	-19.61	-41.23	-172.55	18.44
-0.96	-15.39	-15.87	0.17	-250.01	93.80
0.51	-12.26	-4.75	-97.64	-250.01	103.45
0.24	-11.44	4.22	-22.37	-250.01	83.12
-1.81	-9.15	8.61	-32.15	-110.43	140.93
-0.79	-4.65	6.52	21.61	-37.95	161.82
-1.93	-3.89	4.43	60.08	151.30	-19.79
-4.60	-5.62	-2.33	239.81	225.93	-134.72
-12.50	-12.28	-16.03	212.68	250.00	-250.01
-17.36	-19.61	-19.61	-84.23	192.09	-224.33
-10.40	-19.61	-19.61	-16.27	-31.83	-80.90
-1.68	-19.61	-19.61	-58.12	-250.01	81.28
-1.74	-13.87	-7.33	-107.69	-250.01	125.24
0.98	-11.55	0.76	-92.62	-250.01	136.23
-0.01	-7.38	5.23	-60.75	-205.25	133.82
-0.48	-4.37	7.50	-24.19	-90.74	84.54
-3.14	-3.47	7.99	7.17	69.97	-25.34
-3.14	-5.60	3.35	81.32	241.45	-103.44
-4.71	-11.01	-7.82	112.41	250.00	-216.25
-18.90	-18.63	-19.61	-22.32	250.00	-126.31
-13.49	-19.61	-19.61	10.39	81.84	-71.27
-5.74	-19.61	-19.61	-46.40	-173.77	76.91
-3.92	-13.24	-12.42	-22.12	-250.01	154.61
-0.26	-9.13	-1.96	-70.81	-231.30	126.38
0.65	-7.49	1.41	-16.43	-183.00	52.83
-0.86	-6.71	5.14	6.77	-158.88	24.51
-0.77	-5.79	4.68	7.53	-15.24	-4.91
-4.03	-5.21	3.51	-11.13	154.82	-67.37
-7.97	-7.35	0.41	-1.06	250.00	-92.62
-13.75	-13.67	-9.99	109.87	250.00	-86.81
-18.33	-18.18	-19.61	42.74	250.00	-81.98
-2.83	-19.46	-19.61	-20.25	-61.59	1.52
-0.36	-15.44	-19.61	-16.56	-197.65	95.89
1.41	-13.73	-5.50	-64.62	-250.01	163.43
1.00	-8.38	3.19	-40.01	-249.07	114.18
-1.12	-5.96	7.74	-44.35	-129.25	38.69
-1.09	-4.84	6.93	31.75	3.62	17.75
-2.17	-5.69	3.67	-4.04	135.66	-88.25
-4.28	-8.41	-1.61	104.59	245.00	-128.12
-10.48	-15.99	-12.54	90.29	250.00	-216.05
-13.35	-19.61	-19.61	-83.77	243.11	-113.84
-4.50	-18.93	-19.61	24.61	-72.13	49.57
0.24	-17.28	-18.72	-70.06	-250.01	58.02
-1.82	-12.25	-5.94	-4.53	-250.01	178.69
0.77	-7.78	1.03	-77.51	-223.08	103.99
-2.72	-7.93	6.25	-40.92	-177.84	52.36
0.52	-6.39	5.95	-73.80	-56.60	49.94
-2.76	-6.94	4.40	-7.04	138.42	-53.53
-5.74	-9.57	-0.10	29.40	250.00	-97.93
-9.58	-14.13	-11.86	196.27	250.00	-117.93
-13.81	-17.90	-19.61	-64.48	250.00	-93.71
-9.48	-12.74	-19.61	80.39	-29.02	48.00
0.62	-16.81	-19.61	-80.71	-249.05	35.78
-2.64	-15.45	-6.62	-90.10	-250.01	16.53
-0.28	-12.83	-1.78	-87.42	-250.01	77.98
0.19	-9.21	4.69	-17.04	-177.66	133.87
-1.58	-4.87	5.54	-64.62	-42.76	52.36
-5.33	-5.52	7.55	8.58	83.32	29.77
-5.61	-5.31	3.00	33.77	250.00	-34.10
-8.52	-10.21	-9.21	208.88	250.00	-69.33
-15.85	-16.61	-19.61	84.84	239.48	-110.16
-5.47	-18.39	-19.61	-103.50	-62.67	-41.48
-4.93	-14.55	-18.95	41.47	-209.82	106.30
1.81	-12.56	-6.40	-152.62	-250.01	128.57
2.44	-7.39	0.80	-67.09	-232.74	86.36
0.95	-6.99	5.08	-23.29	-135.32	40.90
-1.13	-5.23	6.01	-40.88	-56.12	-20.78
-3.73	-4.47	6.59	16.73	70.06	-59.14
-6.30	-6.35	1.64	58.76	152.87	-173.49
-9.02	-16.72	-8.57	114.96	250.00	-236.99
-16.34	-19.61	-19.61	-53.67	250.00	-119.86
-12.74	-19.15	-19.61	0.90	-3.75	96.44
-1.26	-15.10	-19.61	-31.79	-174.85	179.67
-0.74	-9.95	-8.03	-106.12	-250.01	177.42
1.08	-6.63	-1.25	-106.42	-231.09	109.29
-0.65	-6.54	2.82	-109.29	-196.69	19.49
-1.52	-7.42	6.08	-18.14	-84.02	-29.19
-5.14	-6.45	7.99	-48.86	34.43	-77.14
-5.25	-7.04	5.70	77.96	222.72	-90.00
-6.07	-12.77	-6.06	115.79	250.00	-190.28
-13.57	-18.45	-19.61	105.73	250.00	-116.79
-10.97	-19.61	-19.61	-25.33	110.33	-49.17
-0.77	-18.46	-19.61	-32.04	-176.45	93.19
0.78	-14.67	-6.34	-99.47	-250.01	152.72
1.02	-9.86	-3.59	-161.40	-250.01	142.93
-1.82	-9.62	4.95	-91.78	-201.54	109.26
-2.97	-7.60	7.58	-60.10	-55.97	55.44
-4.79	-5.42	6.85	4.49	25.12	30.03
-5.58	-5.72	5.48	88.21	132.94	-16.92
-4.52	-8.21	-4.59	125.10	250.00	-132.92
-10.71	-13.20	-16.41	166.81	250.00	-187.68
-14.87	-18.63	-19.61	29.65	127.38	-107.52
-7.41	-18.23	-19.61	-32.87	-77.19	-1.96
-4.19	-15.78	-17.39	-23.07	-205.16	39.64
-0.25	-14.80	-6.62	-114.36	-250.01	81.59
1.19	-10.87	-1.17	-50.11	-250.01	88.06
0.21	-8.74	3.74	17.30	-195.94	108.65
-0.71	-6.13	5.59	-24.89	-129.81	42.61
-3.10	-5.52	7.25	4.38	-14.27	-10.22
-6.03	-5.59	6.68	13.12	107.08	-60.82
-8.79	-9.31	1.03	114.78	250.00	-105.58
-16.87	-13.29	-13.72	53.03	250.00	-100.81
-18.94	-16.68	-19.61	23.29	248.03	7.58
-1.70	-17.13	-19.61	-66.22	-61.78	-1.56
-0.53	-13.75	-10.32	-73.64	-172.99	59.83
0.25	-11.57	-3.51	-111.23	-248.46	140.80
1.49	-8.87	0.51	-63.18	-234.81	123.65
-3.52	-4.69	5.50	-102.26	-152.08	51.84
-3.71	-4.30	5.32	30.72	-46.30	22.39
-5.08	-5.61	3.07	-13.26	92.61	-57.76
-7.16	-5.52	0.28	2.01	165.12	-97.03
-9.54	-7.76	-3.52	67.07	205.53	-140.94
-13.50	-14.69	-12.50	132.11	250.00	-157.78
-7.28	-19.61	-19.61	-128.89	107.24	-164.29
-0.32	-19.61	-19.61	-83.32	-227.61	55.53
-4.32	-11.88	-7.70	-114.63	-250.01	132.34
-3.68	-10.36	1.48	-107.96	-250.01	146.21
-5.71	-2.89	5.17	-111.63	-239.59	102.50
-3.84	-4.59	8.63	-15.68	-81.96	49.58
-3.52	-3.28	6.60	-8.88	43.93	-18.49
-6.39	-4.23	5.33	30.15	183.36	-53.21
-8.86	-5.62	-0.11	107.04	250.00	-95.71
-16.91	-7.68	-11.61	152.23	250.00	-69.86
-6.08	-17.54	-19.61	-1.86	180.24	-202.58
2.16	-19.61	-19.61	-14.02	-9.19	-20.23
-0.68	-15.27	-9.35	22.61	-250.01	89.13
-0.72	-10.35	-1.61	-41.02	-233.43	146.82
-1.60	-7.59	2.71	-36.36	-165.36	80.54
-1.30	-5.67	3.54	-57.63	-51.00	43.29
-4.35	-3.85	4.41	-30.00	16.99	18.37
-8.37	-3.26	4.17	5.20	149.00	-9.52
-13.32	-4.52	-2.48	146.37	245.35	-52.51
-15.06	-10.62	-18.18	135.88	250.00	-128.10
-13.01	-19.61	-19.61	8.08	70.23	-84.38
-6.06	-18.90	-19.61	-142.75	-178.88	-37.88
0.28	-13.89	-5.59	-52.09	-185.22	99.08
2.33	-9.10	-4.97	-27.34	-243.88	78.33
1.74	-8.22	2.74	-8.22	-194.30	68.33
-0.50	-4.52	5.87	-42.50	-156.70	29.53
-1.74	-4.32	6.74	9.51	-3.34	-6.69
-2.98	-5.05	4.36	-52.40	115.30	-75.76
-4.49	-8.90	-1.56	97.92	250.00	-89.73
-12.16	-15.80	-13.26	33.10	250.00	-117.78
-14.44	-19.61	-19.61	11.46	212.18	-30.24
-8.70	-16.82	-19.61	-45.74	-134.24	19.30
-2.69	-16.21	-16.11	-7.75	-212.65	100.16
2.05	-11.19	-10.71	-31.67	-250.01	109.01
1.30	-10.48	0.19	-111.95	-250.01	121.78
2.37	-6.07	3.85	-2.27	-228.27	176.30
0.55	-4.79	8.98	-101.18	-63.17	-3.05
-2.25	-3.70	9.55	-24.29	91.45	-43.73
-5.85	-5.75	3.73	132.69	250.00	-100.92
-11.92	-11.94	-6.17	80.55	250.00	-181.20
-19.61	-13.83	-19.61	108.78	250.00	-14.66
-7.66	-15.53	-19.61	-162.56	122.79	-57.35
-4.96	-18.72	-19.61	-52.64	-75.90	16.62
-0.34	-12.67	-12.36	-52.71	-250.01	83.48
-0.71	-10.70	-0.98	-49.60	-250.01	75.30
-0.85	-6.51	5.10	-30.57	-207.03	53.53
0.05	-6.22	7.84	17.24	-69.33	-1.39
-2.08	-4.80	6.16	14.02	53.66	-48.98
-3.22	-7.18	4.85	95.73	173.63	-74.82
-6.36	-10.91	-4.48	117.54	250.00	-151.81
-13.54	-19.61	-18.64	154.74	250.00	-114.08
-19.00	-19.61	-19.61	206.98	109.45	56.68
-2.00	-19.61	-19.61	-225.96	-168.13	-29.82
-4.53	-19.42	-2.98	-201.06	-250.01	88.73
3.36	-10.32	-5.00	-82.64	-250.01	163.01
1.48	-7.17	2.66	-120.31	-226.37	99.14
0.34	-5.62	8.33	-73.44	-175.12	26.91
-1.15	-4.00	8.07	-23.67	-70.57	-11.38
-2.74	-5.22	7.31	-41.47	94.76	-78.21
-6.05	-7.48	3.96	65.29	248.60	-108.16
-14.33	-13.24	-6.47	162.79	250.00	-161.71
-15.69	-19.61	-19.61	124.35	250.00	-67.43
-0.36	-19.61	-19.61	-156.51	41.86	-90.48
-0.67	-19.61	-16.08	-54.36	-179.68	81.67
1.17	-12.17	-10.04	-37.85	-250.01	171.24
0.11	-9.94	0.96	-88.50	-241.34	94.86
-0.64	-5.62	3.69	-57.43	-182.07	64.08
-1.28	-6.05	7.60	-27.73	-81.40	-3.48
-3.52	-4.08	7.02	-31.69	52.27	-51.48
-4.94	-6.57	4.31	45.63	217.21	-79.24
-12.06	-11.09	-6.03	138.08	250.00	-118.60
-13.99	-15.68	-19.61	-16.48	250.00	-94.71
-1.99	-19.48	-19.61	-62.21	43.21	-24.54
-0.97	-17.31	-19.61	-4.25	-250.01	51.93
-2.50	-13.24	-9.65	14.92	-250.01	160.92
0.37	-9.26	1.99	-52.69	-250.01	101.18
1.39	-4.96	3.86	2.67	-151.57	88.11
0.13	-4.99	5.69	-2.91	-71.13	-0.47
-1.44	-4.66	5.78	-5.50	19.90	-38.85
-2.82	-5.13	3.89	-14.05	172.55	-91.15
-5.42	-9.76	-2.11	95.77	250.00	-147.96
-10.30	-15.33	-19.61	64.60	250.00	-195.69
-16.42	-19.61	-19.61	72.88	218.99	-64.91
-3.67	-19.61	-19.61	-70.24	-206.83	67.58
-1.81	-16.39	-13.30	-40.16	-190.88	136.20
4.69	-13.78	-6.44	-80.82	-250.01	126.20
3.39	-9.66	1.87	-77.43	-250.01	157.18
0.82	-5.35	6.52	-72.69	-172.55	94.09
-0.75	-4.25	7.43	-25.15	-31.23	31.15
-3.03	-2.63	5.92	1.04	86.15	-53.91
-5.54	-6.45	3.80	103.08	219.66	-138.32
-10.34	-13.51	-9.63	151.56	250.00	-215.00
-16.47	-17.94	-19.61	-53.42	250.00	-104.50
-8.36	-19.56	-19.61	-23.47	-6.99	-30.29
-2.32	-16.56	-19.61	-46.53	-153.18	67.77
0.67	-14.33	-12.73	-66.39	-250.01	122.07
2.47	-11.90	-0.30	-63.22	-250.01	86.80
1.56	-9.09	5.08	-99.06	-209.46	65.17
-0.45	-5.03	7.29	-15.99	-73.21	55.79
-3.67	-4.49	9.88	-5.36	6.81	-22.97
-3.31	-4.86	6.52	105.37	176.61	-84.19
-3.34	-9.83	-6.19	124.35	250.00	-213.45
-16.23	-14.95	-19.61	30.27	250.00	-80.95
-10.79	-18.87	-19.61	-119.82	145.45	-97.32
-2.07	-19.61	-19.47	-15.52	-182.24	26.98
-1.67	-14.11	-13.35	-94.01	-250.01	86.76
0.88	-13.72	-2.40	-130.96	-250.01	65.07
0.98	-11.01	2.00	-9.67	-218.28	80.05
-0.67	-8.10	6.15	-30.95	-172.24	57.76
-0.36	-4.82	6.37	15.50	-46.17	46.46
-3.05	-4.31	7.23	-10.76	66.41	-26.25
-4.01	-5.67	2.48	115.87	250.00	-64.95
-7.47	-10.18	-10.80	111.49	250.00	-147.43
-11.92	-15.75	-19.61	87.34	250.00	-104.05
0.12	-19.61	-19.61	-17.93	24.45	-80.16
-0.03	-19.61	-19.61	-6.71	-217.34	27.89
1.58	-16.49	-11.26	15.87	-250.01	137.78
0.63	-10.36	-0.95	-72.72	-250.01	45.63
0.52	-9.81	6.68	-66.79	-246.09	109.22
-0.19	-5.69	7.77	-49.87	-98.26	62.72
-2.80	-4.21	8.30	-15.24	43.78	26.98
-2.55	-4.75	4.23	58.20	235.02	-34.86
-7.85	-9.07	-3.62	99.97	250.00	-80.59
-14.49	-9.13	-19.61	128.16	250.00	-85.55
-16.95	-13.76	-19.61	-113.94	172.71	-88.97
4.36	-19.18	-19.61	-121.29	-109.22	-57.95
-0.46	-13.56	-13.13	-148.91	-250.01	31.87
1.05	-9.79	-4.83	-62.26	-250.01	89.77
0.68	-9.65	5.35	-74.93	-250.01	52.32
-1.24	-6.09	6.09	44.26	-250.01	88.60
0.52	-5.54	6.81	63.66	-63.81	18.16
-0.94	-3.70	3.18	10.83	133.59	-103.72
-6.36	-7.52	1.11	133.07	250.00	-153.09
-9.79	-13.33	-17.40	42.24	250.00	-174.59
-11.55	-18.70	-19.61	-89.17	173.91	-64.62
-0.64	-18.13	-19.61	-33.80	-187.41	19.29
-2.67	-15.43	-12.97	-36.27	-250.01	101.32
-2.79	-10.96	-2.62	-105.01	-250.01	108.06
-2.10	-7.37	4.37	-48.72	-206.81	93.07
-3.49	-5.40	7.99	-32.20	-93.21	47.20
-2.50	-5.77	7.24	25.19	24.19	5.88
-3.06	-5.47	4.28	16.78	148.58	-77.59
-5.28	-7.69	-0.22	96.07	250.00	-107.83
-14.43	-12.13	-14.10	94.46	250.00	-127.57
-13.49	-15.36	-19.61	-95.80	136.47	-61.98
-1.87	-19.61	-19.61	82.91	-133.93	63.23
-1.73	-12.97	-14.13	-120.06	-250.01	80.03
-0.36	-10.93	-4.30	-35.24	-250.01	117.38
-0.68	-7.58	5.10	-45.69	-210.79	59.72
-1.54	-5.72	8.37	-37.64	-121.40	-4.52
-3.63	-4.46	8.16	19.90	22.43	-1.39
-3.93	-5.93	5.17	46.48	148.54	-91.20
-7.29	-10.63	-3.03	123.98	250.00	-106.92
-10.16	-15.52	-19.61	-42.14	250.00	-138.46
-19.61	-19.61	-19.61	44.70	5.16	57.15
-10.70	-14.41	-19.61	-50.68	-130.55	86.54
-7.80	-14.28	-10.06	-21.25	-245.46	132.95
-1.78	-9.24	-1.92	-66.26	-250.01	166.78
-0.94	-5.20	4.15	-55.64	-154.99	119.27
-1.25	-3.51	6.33	-12.83	-57.02	18.05
-2.71	-3.35	6.40	9.57	48.57	-47.59
-3.61	-4.69	5.76	35.18	180.75	-115.12
-7.02	-7.97	0.04	110.27	250.00	-153.05
-13.77	-15.60	-17.06	60.98	250.00	-134.30
-16.87	-19.61	-19.61	-97.77	156.77	-80.20
-2.85	-19.25	-19.61	-71.98	-85.44	50.43
-1.79	-14.97	-13.51	-106.23	-221.21	96.36
0.75	-10.01	-5.76	-67.03	-226.90	137.89
1.19	-7.65	2.60	-71.13	-178.27	87.31
-0.96	-4.64	6.03	-26.36	-97.16	24.18
-3.09	-3.77	7.36	52.96	1.42	-15.09
-2.72	-4.12	4.77	56.17	124.93	-88.71
-1.42	-7.82	-4.82	125.19	225.02	-136.19
-9.59	-16.11	-19.61	-6.64	235.20	-201.23
-19.61	-19.61	-19.61	27.61	85.70	-58.92
-12.81	-19.42	-19.61	-71.84	-137.59	31.55
-4.51	-15.06	-14.45	-38.67	-246.89	119.67
-2.36	-10.76	-3.65	-51.10	-250.01	135.89
-0.67	-8.36	1.98	-117.84	-193.72	86.79
-0.20	-5.67	4.15	-29.22	-127.29	55.95
-2.58	-5.48	6.73	-43.18	-20.09	-13.12
-2.51	-3.62	5.02	1.96	100.23	-59.30
-5.60	-4.87	3.74	30.91	234.43	-103.42
-13.22	-9.40	-7.80	143.66	250.00	-103.84
-18.59	-14.04	-19.61	19.49	229.67	-138.45
-7.98	-19.61	-19.61	-62.85	-24.67	-1.85
-2.63	-17.04	-19.61	-118.25	-183.68	80.97
-0.12	-13.72	-4.73	-46.88	-244.64	131.38
0.74	-8.21	1.50	-70.74	-198.16	90.26
-1.05	-6.24	6.53	-39.39	-130.20	36.97
-2.56	-4.74	7.44	19.82	-23.41	3.22
-3.22	-4.01	6.00	32.71	106.53	-71.53
-3.48	-6.76	2.27	104.41	244.77	-104.80
-7.68	-12.28	-16.11	143.59	250.00	-155.00
-19.61	-16.40	-19.61	-1.53	147.11	-72.92
-8.26	-19.61	-19.61	-36.92	-154.16	-14.11
-5.11	-18.46	-17.17	9.54	-250.01	121.29
-0.82	-11.61	-4.30	-50.43	-247.43	169.73
1.00	-6.11	1.21	-55.76	-183.19	118.97
0.67	-5.19	4.29	-42.86	-117.21	55.52
-0.68	-4.36	5.56	-7.60	-15.21	18.98
-1.35	-4.64	5.46	11.35	79.57	-39.99
-2.13	-4.71	1.02	35.20	205.28	-115.14
-8.08	-11.80	-9.78	48.65	250.00	-174.89
-14.64	-17.12	-19.61	84.96	246.02	-71.09
-15.04	-15.25	-19.61	-29.75	-12.89	-17.16
-6.69	-17.25	-19.61	-82.48	-196.57	48.24
-0.96	-11.80	-10.31	-123.90	-250.01	99.12
1.70	-9.66	-1.04	-125.21	-250.01	83.67
2.40	-8.65	6.21	-76.77	-164.65	58.50
0.56	-6.22	6.93	-12.12	-30.82	-34.07
-2.57	-5.84	6.49	8.80	72.60	-76.38
-7.73	-7.45	4.83	116.31	209.99	-83.16
-13.95	-11.99	-6.00	146.95	250.00	-109.13
-16.37	-16.02	-19.61	27.82	250.00	-38.51
-9.30	-18.42	-19.61	6.93	-109.07	49.30
-8.45	-14.71	-15.82	-142.18	-250.01	59.22
-3.18	-11.14	-6.09	-59.18	-250.01	145.72
0.42	-8.04	0.76	-108.48	-182.89	103.83
1.09	-6.28	4.27	-26.19	-110.52	68.30
-0.05	-5.11	6.11	7.61	-40.71	8.06
-0.74	-3.90	4.16	22.68	79.20	-60.34
-3.13	-6.45	1.61	9.53	192.35	-139.19
-7.30	-8.57	-6.12	69.23	250.00	-144.20
-19.61	-13.48	-19.61	44.50	250.00	-102.25
-18.15	-17.85	-19.61	-37.44	68.77	-94.13
-7.62	-19.61	-19.61	-39.05	-160.23	38.73
-2.10	-15.68	-13.62	-139.00	-234.31	77.57
1.41	-12.33	-5.00	-108.69	-250.01	95.94
0.85	-9.54	2.26	-2.80	-211.75	84.61
-0.29	-6.45	7.14	-33.91	-129.06	36.37
-1.86	-4.21	8.16	8.65	-5.15	-9.77
-2.66	-5.29	7.39	42.90	132.41	-58.54
-3.60	-7.37	-0.87	88.83	250.00	-103.14
-11.56	-12.62	-19.61	100.95	250.00	-105.64
-19.61	-14.25	-19.61	66.50	131.80	-0.43
-4.04	-18.52	-19.61	-112.16	-124.24	5.49
-3.81	-16.10	-14.36	-24.70	-245.70	68.03
1.71	-13.38	-5.67	-101.85	-199.10	61.64
2.69	-11.29	-0.05	-28.67	-218.87	40.98
0.44	-7.75	5.19	4.07	-186.68	32.82
-2.22	-4.50	8.20	-10.09	-60.34	-1.88
-3.87	-4.73	8.17	-12.29	89.11	-52.23
-4.20	-5.02	3.28	60.55	231.59	-59.24
-8.28	-10.15	-11.27	75.66	250.00	-112.57
-19.61	-14.44	-19.61	5.48	204.42	-81.61
-14.07	-19.61	-19.61	48.23	-37.01	23.64
-8.10	-17.31	-19.61	-114.38	-151.07	48.89
-2.23	-12.62	-11.53	-48.88	-199.69	101.50
0.36	-10.03	-2.99	-107.22	-167.32	68.03
0.26	-8.35	0.93	-2.59	-170.68	25.91
-0.45	-7.25	4.47	-29.03	-120.25	14.13
-2.48	-5.23	5.58	-33.27	-33.39	-26.57
-4.57	-5.41	6.23	-3.20	106.41	-47.40
-5.76	-6.48	1.98	30.71	239.97	-91.06
-10.52	-10.35	-10.25	114.47	250.00	-119.34
-19.24	-17.94	-19.61	39.42	250.00	-85.86
-3.72	-19.61	-19.61	1.52	-48.13	19.13
-4.64	-18.70	-13.82	-170.32	-250.01	83.27
-0.24	-9.47	-10.09	-105.85	-250.01	119.20
0.09	-9.29	0.52	-66.45	-250.01	99.12
0.17	-4.10	3.30	-31.94	-196.59	59.88
-1.24	-4.84	8.46	-32.75	-59.27	-16.11
-2.44	-3.47	7.27	-17.26	58.39	-78.71
-3.22	-7.02	5.45	30.32	204.08	-105.49
-5.96	-10.06	-5.89	63.84	250.00	-134.80
-16.67	-16.93	-19.61	70.43	250.00	-88.34
-15.34	-19.61	-19.61	-24.61	-8.06	-42.52
-7.82	-19.61	-19.61	-1.80	-212.38	112.26
-2.86	-14.30	-9.08	-109.88	-250.01	135.49
0.63	-9.75	-1.18	-47.26	-250.01	130.62
0.64	-4.92	4.34	-69.68	-180.69	48.17
-0.65	-4.81	6.62	-20.00	-62.33	-8.69
-1.21	-4.53	5.83	-38.37	55.11	-70.75
-4.16	-7.07	5.44	4.97	180.73	-95.04
-8.31	-9.90	-1.22	34.82	250.00	-103.87
-19.61	-14.84	-14.83	190.57	250.00	3.89
-19.61	-15.78	-19.61	-67.57	97.41	-30.01
-5.30	-19.61	-19.61	-141.30	-113.60	2.88
-3.75	-16.27	-8.24	-127.86	-250.01	79.36
0.23	-8.51	-4.09	-126.31	-213.79	95.19
0.73	-9.00	2.78	-97.93	-185.75	29.67
-0.38	-6.58	5.29	-75.41	-87.98	-4.30
-2.52	-6.40	7.40	-42.47	12.09	-43.28
-4.67	-6.41	6.53	-32.98	154.79	-79.41
-10.46	-10.09	2.20	112.71	250.00	-68.19
-18.01	-13.09	-19.61	118.51	250.00	-50.68
-14.19	-19.61	-19.61	33.03	51.90	34.52
-7.63	-17.22	-19.61	-93.87	-229.01	89.85
-3.66	-9.81	-12.22	-66.03	-250.01	121.35
-1.96	-7.59	-0.62	-45.90	-250.01	105.01
-0.29	-4.92	3.85	-73.55	-154.90	46.69
-1.20	-5.59	6.36	-25.83	-69.03	6.70
-1.79	-4.87	6.47	-20.19	33.38	-33.44
-3.23	-5.77	6.07	-8.29	179.37	-66.20
-5.58	-8.65	2.88	68.40	250.00	-72.70
-13.19	-11.39	-14.04	157.05	250.00	-68.29
-19.61	-15.31	-19.61	-125.58	117.67	-73.47
-10.44	-19.61	-19.61	5.84	-221.76	-9.64
-3.71	-17.44	-7.82	-126.80	-250.01	92.64
0.86	-9.08	-5.76	-67.13	-244.59	129.71
0.89	-7.29	1.50	-92.90	-189.28	63.00
-0.47	-5.25	6.16	-52.55	-110.39	18.50
-1.64	-4.43	8.25	-26.44	8.93	-34.65
-2.89	-4.92	5.99	14.02	149.29	-64.92
-3.84	-7.42	0.01	53.90	250.00	-88.76
-12.43	-11.91	-14.65	18.12	250.00	-115.83
-19.61	-15.39	-19.61	-13.38	125.53	-44.20
-11.57	-15.67	-19.61	19.43	-46.56	63.14
-6.56	-14.34	-18.87	-88.89	-185.27	81.39
0.26	-11.52	-9.18	-78.58	-249.52	119.52
1.45	-9.24	-1.03	-78.46	-250.01	64.70
0.80	-6.47	4.81	-44.73	-171.45	16.55
-1.27	-5.89	9.13	-6.82	-65.96	-11.55
-1.85	-5.08	8.33	17.35	82.76	-32.72
-3.47	-5.22	6.50	14.92	231.30	-77.18
-3.25	-9.40	-1.70	119.04	250.00	-78.47
-9.15	-11.65	-19.61	116.77	250.00	-104.15
-19.61	-19.11	-19.61	-58.85	89.66	-61.94
-7.25	-16.65	-19.61	-32.27	-218.25	55.78
-4.34	-14.72	-10.61	-100.66	-250.01	106.49
0.69	-8.26	-3.65	-81.15	-235.79	125.14
1.15	-7.57	2.36	-94.97	-164.38	27.54
-0.58	-6.63	4.97	-15.46	-93.30	-1.79
-2.19	-5.82	5.09	-10.89	-28.24	-38.00
-2.74	-6.41	3.70	7.68	102.62	-58.60
-5.43	-8.38	-1.60	19.84	243.55	-90.10
-13.74	-11.49	-9.59	103.24	250.00	-79.67
-19.61	-12.63	-19.61	52.51	225.42	9.76
-10.70	-12.12	-19.61	-4.78	-15.02	18.48
-2.95	-15.55	-19.61	-161.31	-116.21	1.75
1.04	-12.17	-8.45	-37.43	-250.01	112.26
1.82	-8.92	1.82	-145.35	-240.64	22.76
-0.10	-7.60	8.76	27.78	-105.04	15.18
-1.99	-6.26	7.77	-18.98	17.44	-32.46
-2.56	-6.56	5.50	46.55	132.02	-39.30
-2.36	-7.53	-0.80	32.62	250.00	-72.37
-5.91	-11.19	-15.26	92.39	250.00	-52.79
-16.08	-13.94	-19.61	3.62	234.58	-5.44
-8.83	-14.51	-19.61	-2.82	-97.22	16.68
-2.81	-15.07	-19.61	-8.99	-198.91	80.15
0.91	-11.22	-12.33	-86.47	-250.01	92.48
1.44	-9.06	-2.55	-48.85	-250.01	76.46
2.43	-7.92	1.49	-30.18	-208.01	52.13
0.59	-7.38	4.87	-92.48	-142.81	0.45
-1.07	-7.09	8.13	-57.76	-14.82	-8.68
-2.73	-5.32	6.63	-36.03	124.09	-37.92
-3.65	-7.09	1.15	52.89	250.00	-44.60
-9.36	-10.49	-11.60	110.32	250.00	-84.41
-12.92	-11.79	-19.61	30.74	250.00	-59.26
-13.26	-13.01	-19.61	-47.59	18.22	-76.90
-2.62	-15.54	-19.61	-14.38	-195.75	39.24
-2.07	-14.10	-10.83	-126.48	-250.01	36.95
-0.75	-9.96	-3.99	-34.52	-250.01	98.18
0.76	-8.08	1.79	-23.58	-220.35	40.59
1.49	-5.67	1.65	26.24	-219.12	12.09
-1.41	-6.35	6.51	-51.16	11.35	-22.15
-2.98	-5.84	5.80	-41.67	141.95	-48.18
-4.59	-7.27	1.78	59.71	250.00	-41.38
-8.77	-9.45	-16.04	128.38	250.00	-40.22
-19.61	-12.01	-19.61	-0.26	193.01	-107.18
-2.91	-19.61	-19.61	-52.64	-130.80	-3.30
-3.57	-10.69	-13.00	-126.39	-250.01	92.92
1.40	-8.99	-6.45	-137.84	-250.01	82.64
1.11	-8.87	-0.12	-74.31	-250.01	45.05
0.32	-8.20	5.76	-15.70	-178.31	13.46
0.27	-6.75	7.25	-10.48	-94.23	-21.62
-1.90	-6.36	7.48	-31.79	88.73	-69.03
-3.37	-8.04	5.06	45.06	250.00	-58.09
-8.01	-10.05	-8.43	156.98	250.00	-43.00
-13.88	-12.17	-19.61	36.34	250.00	-53.54
-5.50	-15.77	-19.61	-18.68	22.16	-19.72
-2.45	-13.69	-19.61	-35.36	-250.01	69.47
0.55	-10.59	-6.87	-95.97	-250.01	107.73
1.77	-8.71	2.40	-134.63	-250.01	28.23
1.93	-5.59	6.25	-101.37	-177.89	5.96
0.67	-7.66	8.87	-72.57	-13.86	-65.52
-2.33	-8.27	7.63	2.72	107.30	-62.31
-3.41	-10.36	0.89	64.81	250.00	-49.08
-8.97	-12.80	-17.00	120.21	250.00	-16.30
-14.71	-14.44	-19.61	14.89	250.00	22.12
-3.20	-8.71	-19.61	-60.18	-166.98	33.13
0.39	-9.78	-12.74	-113.67	-250.01	41.07
1.68	-9.38	-5.85	-112.05	-250.01	17.08
-0.62	-8.33	2.35	-50.46	-250.01	21.29
-0.56	-7.65	7.70	-33.39	-165.86	0.44
-1.48	-5.76	7.27	-16.86	9.26	-1.43
-1.37	-6.61	3.13	-20.32	152.95	-51.15
-3.05	-8.33	-1.37	7.25	250.00	-50.42
-8.52	-11.67	-12.51	145.36	250.00	-47.68
-19.61	-14.75	-19.61	48.95	250.00	19.40
-9.72	-11.09	-19.61	62.32	-26.58	11.31
1.04	-14.60	-19.61	-104.81	-163.38	54.62
3.32	-10.80	-14.28	-76.53	-250.01	111.89
2.23	-8.36	-3.39	-136.97	-250.01	42.09
1.17	-9.31	5.59	-114.42	-250.01	-32.00
-0.86	-6.54	8.99	-55.44	-140.71	-7.07
-2.23	-7.52	10.88	-22.07	33.14	-32.75
-1.83	-6.86	9.38	24.11	200.79	-43.62
0.78	-9.15	-1.10	240.72	250.00	-58.95
-9.66	-18.12	-19.61	89.89	250.00	-122.62
-8.42	-19.61	-19.61	43.25	188.17	-15.61
-1.64	-18.45	-19.61	-56.13	-185.26	140.17
-0.53	-7.85	-9.18	-179.60	-250.01	117.16
0.73	-8.53	-3.97	-183.48	-250.01	82.30
0.43	-6.68	3.97	-59.47	-220.21	59.15
0.70	-7.25	7.31	-10.82	-114.91	0.48
0.42	-6.55	5.68	-14.45	8.29	-15.22
-0.36	-5.72	4.92	5.49	70.77	-56.65
-1.95	-7.11	0.37	78.14	188.46	-123.36
-5.37	-16.14	-11.36	172.06	250.00	-164.72
-9.56	-19.61	-19.61	33.30	250.00	-204.86
-9.00	-19.61	-19.61	30.08	36.39	94.62
3.07	-19.61	-19.61	-105.41	-230.38	82.39
0.43	-10.56	-11.71	-123.00	-250.01	168.06
1.07	-7.42	-1.52	-162.48	-250.01	70.70
1.01	-8.07	5.34	-122.59	-250.01	45.93
0.65	-5.43	5.82	-60.24	-147.62	-18.93
-3.23	-6.06	10.03	-3.62	47.20	-38.61
-2.41	-6.99	6.98	23.09	206.11	-99.37
-2.60	-10.80	-5.77	99.89	250.00	-125.19
-6.75	-17.75	-19.61	-61.74	250.00	-142.05
-17.63	-19.61	-19.61	114.81	54.86	37.80
-4.77	-14.50	-19.61	-101.94	-215.85	137.60
-2.61	-10.05	-15.30	-10.03	-250.01	163.20
-1.16	-7.01	-2.03	-127.28	-250.01	152.11
-0.81	-6.26	5.05	-43.86	-193.98	84.33
0.11	-5.55	6.17	5.58	-109.56	47.20
-0.72	-5.57	6.48	-30.42	47.20	-56.05
-1.79	-6.70	6.56	28.50	140.91	-77.23
-0.17	-8.04	0.58	95.93	250.00	-148.90
-0.08	-14.51	-16.33	103.11	250.00	-201.35
-16.35	-19.07	-19.61	41.04	227.36	-44.03
-8.13	-12.13	-19.61	-41.22	-130.68	52.94
2.29	-18.66	-19.61	-121.09	-239.57	106.05
5.53	-10.48	-9.75	-131.50	-250.01	184.33
0.83	-6.44	3.95	-97.77	-232.91	88.13
-0.01	-5.36	5.61	-107.83	-215.22	-36.21
-2.42	-6.81	7.88	-16.89	-19.20	-80.47
-2.39	-8.56	7.51	-31.43	85.74	-89.98
-3.18	-8.04	2.61	80.02	250.00	-88.08
-2.84	-13.30	-10.28	36.26	250.00	-144.70
-14.37	-18.27	-19.61	76.88	250.00	-32.06
-17.16	-15.75	-19.61	76.46	97.48	79.05
-0.07	-14.33	-19.61	-54.57	-227.96	158.70
-0.03	-9.02	-7.14	-129.31	-250.01	152.99
1.88	-5.64	0.19	-142.19	-250.01	124.71
0.90	-5.67	7.57	-110.19	-158.72	38.25
-0.52	-4.85	6.59	-6.39	-9.85	-8.61
-1.33	-6.11	5.82	-28.73	66.89	-70.46
-1.43	-6.19	2.08	18.03	206.19	-114.28
-0.68	-10.79	-7.09	27.72	250.00	-154.61
-8.68	-15.41	-18.99	62.75	250.00	-97.09
-15.40	-19.35	-19.61	90.39	170.59	-19.25
-5.66	-16.31	-19.61	-35.02	-163.89	116.36
2.32	-10.87	-18.52	-59.85	-250.01	133.35
0.37	-8.13	-5.18	-88.95	-250.01	139.98
4.34	-5.83	-5.35	-99.85	-250.01	119.48
1.22	-5.26	7.55	-112.26	-95.16	54.49
-1.44	-6.90	8.52	-113.83	72.28	-37.62
-3.25	-9.32	6.81	-1.56	202.48	-35.05
-4.08	-10.01	0.24	37.81	250.00	-84.37
-8.69	-14.74	-8.57	189.31	250.00	-83.70
-18.29	-16.78	-19.61	125.97	250.00	-5.62
-14.43	-15.59	-19.61	184.93	85.31	153.68
-1.83	-11.83	-19.61	-125.21	-174.13	140.39
0.60	-11.53	-10.36	-165.84	-250.01	108.40
0.43	-8.05	-3.14	-162.75	-250.01	61.98
0.37	-8.20	3.10	-132.35	-190.14	-6.23
-0.45	-6.21	5.99	-107.30	-87.25	16.44
-1.25	-4.93	7.11	-39.29	32.85	-51.60
-1.67	-7.13	4.99	-14.34	188.25	-125.39
-2.45	-11.47	-1.31	73.82	250.00	-129.33
-7.64	-18.52	-19.61	141.00	250.00	-131.28
-18.73	-19.61	-19.61	11.93	220.34	19.22
-11.00	-16.02	-19.61	23.75	-211.20	155.51
-0.82	-12.56	-17.34	89.15	-250.01	250.00
4.07	-4.52	-11.15	-167.46	-250.01	124.68
0.86	-9.52	3.74	-140.68	-227.13	26.76
0.64	-5.73	4.79	-73.19	-136.61	20.29
-1.08	-6.80	8.08	-78.84	-35.25	-69.50
-1.15	-7.13	6.98	-74.63	108.40	-91.72
-1.40	-9.83	1.74	-9.34	250.00	-109.75
-3.20	-13.42	-11.41	40.03	250.00	-123.44
-14.22	-19.61	-19.61	27.63	250.00	-4.49
-10.56	-13.29	-19.61	-60.25	27.10	-12.49
-0.39	-18.70	-19.61	8.54	-250.01	142.55
0.87	-5.45	-12.84	-129.74	-250.01	142.28
1.26	-7.31	-1.28	-96.63	-250.01	94.72
0.32	-5.47	6.67	-68.70	-227.07	55.53
0.17	-5.12	8.03	-46.55	-78.39	-15.50
0.05	-8.00	7.74	-51.43	140.68	-0.68
0.94	-7.68	3.59	40.91	206.83	-75.21
0.85	-11.20	-8.21	154.25	250.00	-103.82
-9.06	-17.12	-19.61	37.77	250.00	-139.42
-18.26	-16.64	-19.61	6.47	190.08	30.53
-7.98	-14.73	-19.61	-18.61	-185.14	46.68
-2.10	-13.93	-18.80	-96.26	-250.01	74.00
-0.02	-9.91	-7.28	-21.07	-250.01	133.90
1.24	-7.29	0.75	-138.71	-250.01	70.73
1.29	-7.40	5.97	-30.37	-133.02	64.72
-2.51	-6.07	10.44	-55.62	-61.86	-0.15
0.80	-7.30	9.20	63.27	145.88	-9.98
-2.34	-7.04	5.58	53.38	250.00	-43.23
-1.18	-11.13	-12.63	186.61	250.00	-77.84
-6.74	-15.32	-19.61	59.76	250.00	-82.63
-18.35	-14.13	-19.61	-36.57	100.05	5.76
-8.42	-11.18	-19.61	-19.85	-250.01	39.43
-1.05	-14.02	-10.18	-97.93	-250.01	83.99
-0.13	-7.72	-3.35	-42.47	-250.01	96.29
1.89	-8.73	1.62	-81.75	-185.72	28.94
-0.77	-7.38	6.65	-98.75	-149.49	0.43
-1.02	-6.39	7.15	43.60	10.71	6.16
-1.20	-5.44	5.53	-30.02	143.99	-48.70
-2.32	-8.72	-0.11	77.47	250.00	-84.78
-8.88	-11.51	-14.69	106.13	250.00	-94.31
-18.46	-15.33	-19.61	-55.16	250.00	-83.13
-8.21	-15.85	-19.61	50.53	-165.88	36.23
-0.26	-10.39	-19.61	-44.88	-250.01	65.56
2.37	-9.68	-7.65	-38.50	-250.01	141.39
1.25	-8.09	0.60	-112.74	-232.89	23.67
-1.96	-8.52	6.93	-101.41	-202.56	5.81
-3.00	-6.84	10.26	-18.24	-33.70	22.99
-2.87	-5.80	8.71	-14.04	154.84	-38.00
-2.54	-8.66	2.85	123.64	250.00	-47.92
-6.10	-11.31	-13.58	124.65	250.00	-116.34
-18.91	-16.46	-19.61	0.41	250.00	-38.67
-5.32	-15.41	-19.61	18.07	-79.84	44.21
-3.59	-12.32	-19.61	8.72	-192.88	73.82
-1.06	-9.99	-10.44	-83.27	-250.01	98.04
-3.07	-8.37	2.39	-49.80	-250.01	83.45
-1.14	-5.60	4.95	-56.59	-187.54	52.88
-1.70	-5.97	7.04	-22.57	-11.08	4.87
-1.51	-5.81	6.43	7.96	64.75	-45.21
-1.96	-6.46	4.34	72.21	197.47	-90.38
-1.56	-11.44	-6.73	96.31	250.00	-143.98
-8.47	-18.93	-19.52	0.49	250.00	-84.48
-8.68	-19.07	-19.61	-10.61	125.41	51.72
-7.20	-11.04	-19.61	-41.55	-102.49	91.42
-0.85	-12.09	-17.25	-58.65	-250.01	31.16
-0.18	-9.26	-3.49	-78.19	-250.01	83.90
2.45	-6.63	1.84	-93.49	-250.01	46.25
-0.69	-5.92	7.97	-79.59	-152.78	-7.48
-2.01	-4.80	7.65	-36.07	11.26	-41.82
-4.64	-5.91	6.55	-28.60	152.62	-71.44
-6.58	-10.21	1.88	48.56	250.00	-91.43
-14.14	-15.34	-12.11	51.84	250.00	-80.33
-14.43	-19.14	-19.61	39.83	208.07	38.35
-8.88	-12.43	-19.61	-40.44	-62.96	72.01
-0.84	-12.17	-18.15	-45.27	-250.01	88.39
-1.88	-5.94	-4.64	-98.60	-250.01	77.65
2.43	-7.85	3.30	-107.61	-217.59	20.78
0.43	-5.64	5.90	-16.82	-122.30	-29.11
-1.48	-7.01	7.34	-29.38	26.58	-46.40
-2.02	-7.76	4.69	8.26	169.15	-70.50
-4.34	-10.39	-3.92	60.11	250.00	-92.76
-12.17	-14.23	-19.61	-8.51	250.00	-74.10
-19.61	-19.61	-19.61	99.06	75.94	37.24
-2.82	-15.92	-19.61	-57.75	-239.15	63.24
-1.89	-11.11	-9.75	46.41	-250.01	106.75
2.13	-10.23	-2.98	-150.26	-250.01	114.24
1.11	-3.97	2.33	-43.29	-250.01	127.68
2.87	-5.09	5.68	-64.01	-128.82	7.18
-1.10	-3.04	5.91	-45.47	10.34	-51.20
-2.26	-5.81	6.17	-16.43	106.41	-98.65
-3.88	-8.43	1.86	10.96	250.00	-87.63
-9.31	-15.57	-15.77	-64.04	250.00	-98.21
-18.50	-17.53	-19.61	4.37	250.00	76.38
-13.46	-7.35	-19.61	69.08	-89.94	109.63
-6.32	-7.37	-19.61	-53.30	-250.01	49.16
-1.99	-8.61	-8.24	6.85	-250.01	57.32
0.63	-5.31	0.33	-67.11	-250.01	58.31
1.97	-6.14	7.99	-23.64	-146.28	3.11
0.60	-5.44	6.30	-31.47	7.64	-43.25
-0.86	-5.63	5.03	-43.61	119.98	-38.49
-1.69	-6.65	0.58	-45.07	250.00	-61.59
-6.40	-11.90	-10.42	-39.97	250.00	-69.20
-17.47	-15.11	-19.61	152.01	250.00	14.36
-13.38	-14.18	-19.61	-10.24	46.59	-21.66
-8.85	-16.65	-19.61	52.39	-157.59	92.80
-2.89	-5.41	-16.72	-83.45	-250.01	116.48
-1.26	-4.50	-2.59	-43.24	-250.01	70.53
0.16	-3.06	4.64	-191.91	-215.01	0.61
0.30	-9.45	12.26	-103.59	-39.22	-83.06
-1.06	-10.38	9.62	-11.63	106.38	-33.73
2.52	-8.62	1.55	67.50	228.71	6.03
2.49	-9.03	-10.45	79.62	250.00	-28.13
-5.82	-13.02	-16.54	102.98	215.17	-66.86
-19.61	-11.86	-19.61	82.35	217.76	15.53
-9.69	-15.99	-19.61	-123.79	-21.17	-60.69
-3.00	-13.70	-12.91	18.35	-250.01	123.66
5.25	-10.29	-12.92	-137.55	-250.01	117.59
0.95	-7.58	1.08	-44.75	-250.01	82.83
1.01	-5.59	5.04	-33.20	-192.64	17.58
-1.34	-7.06	10.27	-13.20	-61.25	-51.61
-0.35	-5.67	7.34	27.01	112.93	-43.75
-0.83	-7.35	2.94	45.26	250.00	-83.77
-1.00	-11.61	-10.36	85.15	250.00	-100.02
-16.32	-18.86	-19.61	-12.06	250.00	-4.36
-16.16	-15.28	-19.61	66.87	87.49	45.12
-3.70	-19.05	-19.61	-118.37	-161.08	95.41
-0.33	-10.56	-10.92	-13.77	-250.01	157.55
0.28	-6.69	-0.89	-105.26	-224.78	101.23
0.89	-6.66	4.64	-32.41	-102.66	30.64
0.57	-6.36	3.53	10.27	-67.62	-38.55
-0.24	-6.63	3.12	19.97	29.73	-69.25
-0.51	-8.01	1.99	0.72	104.86	-101.62
-3.37	-9.70	-4.88	39.16	250.00	-113.79
-15.09	-17.09	-17.95	-6.95	250.00	-93.91
-19.61	-19.61	-19.61	30.02	103.97	69.35
-9.86	-13.49	-19.61	-30.50	-234.58	66.12
-3.43	-10.23	-7.42	-18.72	-250.01	103.84
0.74	-6.45	-4.59	-112.20	-250.01	125.42
-0.78	-3.58	4.42	-97.33	-182.36	59.50
-0.59	-4.86	8.85	-53.29	-36.39	-18.45
-1.01	-6.57	7.53	-23.35	104.41	-72.50
0.25	-8.64	4.52	58.61	212.36	-86.90
2.38	-10.38	-9.17	148.91	250.00	-112.91
-10.26	-19.61	-19.61	6.12	152.97	-141.74
-19.61	-19.61	-19.61	33.37	-73.41	18.53
-19.61	-19.61	-18.74	52.58	-183.65	141.78
-4.03	-10.28	-15.65	-27.90	-250.01	131.10
0.29	-6.21	-2.22	-80.94	-203.12	172.32
-0.82	-4.61	5.44	-66.43	-145.99	88.45
0.68	-3.73	5.72	-52.10	-5.36	26.96
0.19	-5.31	5.56	-27.10	78.94	-46.54
1.01	-8.48	6.54	53.13	175.21	-79.38
2.67	-9.30	-1.13	77.73	250.00	-138.89
2.03	-19.61	-19.16	31.69	250.00	-198.64
-17.89	-19.61	-19.61	21.55	123.17	-48.91
-19.61	-16.99	-19.61	21.70	-63.57	84.74
-6.90	-14.89	-19.61	-16.42	-250.01	119.11
-5.10	-10.39	-3.00	-58.33	-250.01	137.94
-1.37	-7.25	1.43	-93.21	-230.12	183.31
-0.38	-5.84	5.42	-61.47	-99.93	154.20
0.63	-6.04	6.51	-61.42	41.00	37.71
-2.20	-4.21	5.90	24.10	71.47	-31.60
-0.81	-6.74	4.09	90.53	178.50	-107.00
-1.17	-7.51	-3.93	211.39	250.00	-150.94
-8.31	-18.64	-18.24	97.19	250.00	-180.38
-18.32	-19.61	-19.61	146.96	109.97	26.24
-11.08	-19.61	-19.61	-55.50	-91.84	111.19
-5.31	-15.23	-15.82	-86.85	-250.01	66.84
-4.30	-10.24	-5.30	-106.64	-250.01	129.96
0.68	-8.72	1.42	-139.14	-215.12	83.66
0.52	-5.15	4.80	-52.67	-137.40	20.32
-0.23	-5.91	6.81	-65.76	-51.20	-34.27
-2.46	-5.04	6.67	-11.94	55.77	-39.80
-2.27	-8.18	5.02	21.14	215.19	-67.47
-3.43	-9.18	-3.66	131.75	250.00	-102.41
-11.06	-17.38	-19.03	67.41	250.00	-108.48
-19.61	-19.61	-19.61	45.78	74.82	-33.46
-17.55	-19.61	-19.61	-47.00	-77.34	52.23
-7.17	-16.68	-15.54	-51.49	-204.88	126.64
-3.46	-12.00	-7.12	-66.07	-222.11	150.69
-0.40	-7.02	-1.72	-56.81	-201.60	136.13
0.40	-4.43	1.58	-1.17	-119.01	83.04
-0.12	-2.16	2.07	-49.31	-41.96	-9.96
-0.83	-3.90	4.86	-23.32	11.09	-66.66
-1.57	-4.82	2.03	-21.67	161.68	-144.18
-2.51	-10.20	-0.78	61.82	248.17	-161.50
-8.66	-19.49	-16.18	72.05	250.00	-161.17
-19.61	-19.61	-19.61	-18.21	113.25	-33.04
-10.73	-19.61	-19.61	103.87	-158.24	107.29
-4.83	-13.36	-10.25	-93.49	-245.37	136.88
-2.45	-8.48	-6.34	-67.58	-240.65	141.63
-0.05	-4.54	-1.69	-170.13	-176.45	44.34
-0.37	-6.53	7.18	-89.88	-103.08	-34.10
-0.80	-8.21	7.13	-26.68	13.26	-66.62
-1.86	-9.04	4.19	5.04	188.68	-44.58
-5.27	-10.32	-1.76	37.55	250.00	-65.60
-4.73	-14.68	-14.51	11.44	250.00	-83.60
-13.60	-17.02	-19.61	39.80	222.44	11.36
-9.48	-15.75	-19.61	-50.84	-69.08	-6.09
-5.51	-17.73	-16.75	12.16	-229.40	131.62
1.64	-9.52	-13.15	-75.46	-250.01	130.66
-0.14	-7.34	-0.47	-74.21	-250.01	124.60
0.83	-5.52	6.01	-37.56	-175.22	17.94
-0.17	-4.91	7.13	-55.18	-23.12	-94.83
-2.09	-6.70	6.68	19.72	104.83	-76.09
-1.80	-8.84	3.12	9.91	232.21	-129.97
1.24	-14.24	-10.47	84.21	250.00	-157.44
-7.96	-19.61	-19.61	-112.45	250.00	-137.52
-16.26	-19.61	-19.61	73.92	-50.91	28.67
-4.26	-18.10	-19.61	-109.61	-178.11	99.29
-2.39	-13.84	-16.30	-97.53	-250.01	161.53
0.60	-8.95	-4.33	-141.78	-250.01	142.38
-0.58	-5.72	2.98	-73.65	-231.27	79.74
-0.33	-6.38	7.24	-63.32	-145.47	-9.10
-2.06	-4.71	7.23	5.95	-30.55	-23.93
-0.63	-7.70	6.70	-13.98	129.89	-89.47
-3.34	-8.50	2.96	85.15	250.00	-92.33
-8.24	-14.18	-9.63	171.80	250.00	-128.99
-15.32	-19.61	-19.61	59.06	250.00	-64.35
-8.62	-19.61	-19.61	-48.45	53.61	-0.50
-5.19	-15.86	-19.61	-57.12	-227.94	99.25
0.24	-11.11	-6.69	-90.95	-250.01	148.37
0.33	-8.78	-0.53	-148.22	-219.70	52.76
0.78	-7.53	3.01	-77.23	-170.20	24.18
-2.00	-5.63	7.81	-48.81	-104.08	-15.60
-2.52	-5.15	10.17	1.42	40.90	-56.68
-2.11	-6.59	7.21	43.92	232.40	-88.72
-2.81	-12.39	-4.08	156.74	250.00	-118.80
-7.42	-19.61	-19.61	-12.07	250.00	-162.26
-19.34	-19.61	-19.61	57.20	62.05	30.47
-6.78	-17.02	-19.61	-23.15	-250.01	123.97
-1.42	-15.19	-5.88	-110.09	-250.01	165.72
1.91	-8.00	-1.02	-158.36	-250.01	145.11
2.11	-7.35	3.35	-89.99	-178.56	84.87
-0.17	-7.22	8.57	-65.83	-97.60	32.62
-0.61	-3.74	9.15	-40.12	8.22	-26.05
-1.29	-5.91	9.12	12.41	152.87	-94.67
1.31	-8.44	-2.87	57.60	250.00	-155.41
-2.99	-17.85	-19.61	-18.44	250.00	-174.00
-19.61	-18.11	-19.61	182.74	195.14	42.02
-10.69	-13.97	-19.61	-59.60	-53.47	42.55
-1.73	-16.18	-17.06	-108.16	-245.70	80.40
-1.43	-9.56	-8.97	1.47	-250.01	178.54
0.34	-5.85	-0.01	-59.21	-177.11	93.29
-0.69	-6.08	1.91	-21.06	-120.44	54.72
0.13	-5.85	2.84	-24.77	-39.33	-8.19
-2.00	-6.36	4.88	-29.62	31.79	-82.75
-3.11	-7.56	2.74	43.43	194.65	-116.74
-6.02	-13.09	-5.89	81.17	250.00	-149.84
-11.06	-18.24	-19.61	28.65	250.00	-132.94
-12.63	-18.46	-19.61	6.52	97.58	53.03
-1.22	-15.66	-19.61	-50.87	-250.01	127.80
0.47	-11.36	-11.06	-123.74	-250.01	180.91
3.20	-7.21	-4.74	-135.47	-250.01	99.79
-0.19	-9.18	10.69	-164.02	-187.12	35.45
-0.04	-5.67	8.40	-10.82	-21.39	9.77
-0.93	-6.05	7.18	-16.87	81.45	-64.61
-0.67	-7.05	3.03	68.46	190.78	-108.80
-0.06	-12.89	-8.88	131.73	250.00	-169.20
-14.28	-19.61	-19.61	94.30	250.00	-113.70
-17.39	-19.61	-19.61	66.87	83.77	73.38
-0.16	-19.61	-19.61	-22.43	-250.01	172.99
1.87	-9.08	-12.92	-8.66	-250.01	178.93
0.73	-5.48	-1.57	-109.80	-250.01	127.28
-0.26	-4.67	2.99	-61.70	-177.07	91.35
0.07	-5.00	4.76	-99.98	-89.18	-14.20
-1.82	-6.92	6.99	-60.05	-4.53	-80.96
-3.42	-6.97	5.23	15.65	122.67	-85.47
-4.64	-10.61	0.05	29.69	248.18	-133.00
-10.63	-17.35	-8.06	116.75	250.00	-104.38
-19.61	-19.61	-19.61	218.32	219.57	57.12
-13.30	-15.05	-19.61	-78.56	-55.17	45.96
-5.21	-18.64	-19.61	-93.69	-148.75	119.05
2.30	-10.96	-8.86	-101.20	-250.01	169.01
0.39	-7.59	3.20	-154.33	-240.07	107.84
0.89	-6.03	6.55	-152.35	-182.41	10.86
-0.92	-4.39	8.38	-64.41	-21.71	-0.70
-2.61	-6.19	7.88	-49.97	96.55	-70.41
-2.35	-7.86	5.04	35.33	225.00	-82.69
-4.01	-10.45	-3.28	110.29	250.00	-187.05
-14.82	-19.61	-19.36	51.66	250.00	-140.26
-14.88	-19.61	-19.61	12.61	116.07	22.51
-6.90	-17.89	-19.61	19.74	-146.16	135.05
-4.07	-9.28	-14.23	-101.97	-235.51	125.54
-1.79	-8.17	-4.51	-57.35	-221.78	111.45
-0.64	-6.79	0.20	-88.01	-174.69	62.66
-0.51	-7.67	4.83	-61.94	-91.07	18.97
-2.20	-7.05	6.41	-45.73	-31.08	15.10
-1.62	-5.27	4.77	6.17	116.22	-19.89
-3.86	-5.30	0.77	52.28	198.07	-119.73
-8.48	-12.06	-10.79	117.62	250.00	-168.43
-15.32	-18.54	-19.61	-42.31	250.00	-143.76
-4.24	-19.61	-19.61	25.39	29.08	-3.18
-4.83	-16.12	-19.61	45.44	-230.11	116.75
-1.19	-10.62	-13.38	-47.53	-250.01	101.31
-1.62	-9.20	-2.07	-66.80	-250.01	101.86
-0.78	-7.45	3.78	-85.67	-204.92	54.98
-1.13	-6.38	6.27	-42.95	-101.67	29.05
-1.04	-6.86	5.33	-72.57	17.37	-38.14
-3.88	-6.83	5.10	8.50	134.69	-50.74
-7.06	-9.46	0.36	56.09	250.00	-121.72
-11.69	-15.41	-13.09	131.68	250.00	-112.50
-12.91	-19.27	-19.61	-13.89	173.44	-34.07
-9.73	-18.81	-19.61	-34.66	-108.36	41.26
-5.93	-13.69	-18.82	13.13	-250.01	92.99
-2.10	-10.54	-7.14	-51.26	-239.75	121.10
0.36	-8.27	-0.76	-33.84	-194.74	113.88
1.09	-8.04	1.54	-98.31	-147.45	38.80
-1.75	-5.83	5.82	-82.18	-134.93	6.69
-0.42	-4.83	6.77	-10.36	51.00	-2.28
-2.70	-4.14	3.78	20.39	250.00	-86.34
-4.22	-13.64	-5.42	192.75	250.00	-156.13
-11.66	-19.61	-19.61	1.40	250.00	-220.49
-10.71	-19.61	-19.61	32.54	77.80	-41.63
-1.98	-18.46	-19.61	54.86	-239.66	190.88
0.92	-12.32	-9.45	-113.51	-250.01	132.40
-0.28	-7.14	-1.60	-34.15	-250.01	158.54
0.10	-6.18	3.62	-105.12	-208.61	100.08
-1.30	-7.08	7.42	-91.11	-88.90	38.09
-3.16	-5.08	7.35	-65.10	0.71	0.41
-4.20	-5.48	6.33	-7.22	149.17	-44.69
-7.52	-9.71	1.37	57.38	250.00	-106.72
-17.02	-13.79	-14.27	206.66	250.00	-89.33
-16.78	-17.92	-19.61	-69.47	225.19	-80.37
-2.97	-19.61	-19.61	-30.62	-44.81	79.74
-2.07	-10.94	-16.17	-66.59	-250.01	115.73
-0.40	-8.44	-3.82	-61.29	-250.01	134.55
0.21	-6.74	1.34	-54.12	-192.75	31.71
-1.59	-6.38	6.04	-31.17	-88.86	-5.96
-2.45	-5.38	6.71	-27.61	-9.92	-41.47
-2.02	-6.47	5.71	25.57	171.00	-80.60
-3.51	-8.99	-0.44	40.26	250.00	-125.35
-8.93	-18.11	-16.32	120.65	250.00	-162.21
-19.61	-19.61	-19.61	-34.74	204.28	-79.25
-4.03	-19.61	-19.61	-27.92	-168.77	65.33
-0.93	-14.66	-14.39	-49.75	-243.68	198.22
2.17	-9.88	-8.95	-73.06	-250.01	169.14
0.84	-6.57	0.26	-79.36	-250.01	69.70
-0.76	-5.66	6.15	-51.84	-155.70	30.86
-1.12	-5.00	7.41	-38.44	-47.45	-20.23
-2.12	-5.00	6.83	27.59	97.23	-43.79
-2.57	-5.55	1.89	-28.43	250.00	-122.23
-4.62	-14.01	-6.62	138.16	250.00	-154.93
-14.07	-19.61	-19.61	-86.62	250.00	-147.51
-9.91	-19.61	-19.61	41.99	44.26	22.57
-3.48	-17.16	-19.61	-54.49	-250.01	110.81
-1.50	-12.09	-9.05	-41.42	-250.01	180.32
1.82	-6.90	-2.35	-114.08	-250.01	124.87
1.20	-7.42	4.71	-65.46	-167.51	43.62
-1.03	-5.98	5.73	-58.72	-99.99	-4.06
-3.37	-6.51	7.34	-48.01	27.49	-21.20
-5.94	-5.62	5.53	-3.98	144.39	-50.10
-7.39	-7.03	-1.83	73.02	250.00	-76.80
-16.23	-12.49	-15.81	110.11	250.00	-113.21
-17.75	-17.84	-19.61	76.81	173.27	-93.04
1.07	-17.70	-19.61	-190.25	-92.36	-25.09
1.38	-15.59	-6.31	13.18	-250.01	138.10
2.03	-5.52	5.71	-246.60	-250.01	127.48
-1.72	-7.79	7.52	-49.24	-200.80	71.73
-2.72	-6.16	8.57	-34.01	-42.07	10.86
-4.33	-6.56	8.12	-3.72	72.11	-54.75
-3.44	-7.08	4.50	55.15	171.10	-96.86
-3.53	-11.06	-5.56	123.59	250.00	-135.43
-11.47	-16.82	-19.61	99.25	250.00	-121.88
-19.61	-19.61	-19.61	-15.26	115.02	14.29
-8.18	-16.58	-19.61	-53.24	-186.90	72.05
-1.97	-13.48	-12.66	-51.61	-250.01	119.61
1.52	-11.68	-3.99	-65.60	-250.01	102.96
0.53	-7.49	2.52	-9.18	-159.90	95.30
-1.00	-5.50	4.89	-15.24	-86.08	32.69
-2.13	-5.70	6.16	-16.45	23.64	-30.46
-4.21	-5.93	6.09	-13.99	126.16	-92.65
-5.36	-10.44	2.39	105.84	250.00	-103.75
-8.97	-17.63	-19.61	192.99	250.00	-145.75
-15.56	-19.61	-19.61	-156.30	187.31	-56.29
-5.89	-19.47	-19.61	22.15	-250.01	111.16
0.18	-12.13	-12.31	-64.65	-250.01	171.43
0.92	-10.79	-2.21	-68.54	-250.01	137.69
-0.42	-8.09	2.12	-40.06	-221.80	80.97
-0.04	-5.86	5.44	-39.28	-126.48	41.05
-1.90	-5.11	7.42	-16.75	-33.39	-6.87
-0.34	-5.52	5.66	-18.78	117.23	-47.53
-1.73	-6.74	1.43	23.06	250.00	-115.20
-6.04	-12.70	-14.87	-22.16	250.00	-181.71
-19.61	-17.15	-19.61	43.49	233.10	-51.84
-4.81	-17.01	-19.61	-4.28	-217.02	-34.45
-4.28	-19.24	-12.39	14.94	-250.01	108.45
0.38	-12.66	-4.53	-17.81	-250.01	173.10
0.43	-8.81	2.26	-29.15	-211.18	139.05
0.91	-5.35	3.20	-68.77	-109.51	65.73
-1.62	-5.83	7.49	9.57	-39.80	27.33
-2.65	-4.09	5.91	-25.22	96.74	-46.36
-2.26	-6.17	5.27	82.22	250.00	-73.73
0.62	-11.56	-10.79	47.91	250.00	-220.26
-14.83	-19.61	-19.61	-39.00	250.00	-191.45
-16.80	-19.61	-19.61	30.01	-24.61	-113.79
-5.97	-19.61	-19.01	63.63	-241.37	146.61
-1.15	-10.55	-10.18	-28.76	-250.01	199.21
0.99	-7.50	-1.86	-37.62	-243.68	177.50
1.80	-5.42	1.90	-34.88	-165.73	108.59
-0.30	-4.98	3.47	-36.36	-78.13	9.99
-2.30	-4.62	5.06	-85.47	10.12	-48.33
-3.81	-5.24	6.12	-9.69	174.97	-62.94
-5.71	-9.84	1.83	2.30	250.00	-110.86
-14.54	-15.10	-19.02	238.87	250.00	-85.79
-16.42	-19.61	-19.61	-238.94	121.61	-121.62
-6.73	-19.61	-19.61	64.66	-250.01	95.29
1.75	-11.47	-12.82	-77.39	-250.01	192.33
1.07	-7.20	-0.77	-33.66	-250.01	145.71
0.55	-5.22	2.23	-71.16	-151.94	41.79
-3.06	-5.53	8.08	-64.71	-45.46	-6.85
-2.08	-4.03	5.29	42.35	70.05	-23.83
-3.09	-6.88	3.44	2.73	239.71	-106.84
-4.80	-9.92	-4.17	169.03	250.00	-119.51
-12.75	-15.90	-19.61	-47.60	212.03	-150.55
-19.61	-19.61	-19.61	5.68	20.68	-33.65
-9.52	-19.61	-19.61	-36.95	-188.40	121.90
-4.56	-11.11	-13.02	-34.71	-250.01	164.69
-0.99	-8.34	-2.26	-47.30	-222.72	156.06
0.49	-5.09	0.96	-37.47	-167.34	77.43
-0.53	-4.40	4.43	-29.82	-67.06	5.61
-2.77	-4.47	5.66	-21.96	9.58	-36.84
-3.10	-3.77	4.50	-39.47	160.98	-95.22
-3.14	-6.45	2.13	61.53	250.00	-161.66
-12.22	-14.99	-17.09	147.12	250.00	-209.69
-19.61	-19.61	-19.61	-219.72	105.08	-142.23
-11.61	-19.61	-19.61	184.61	-176.74	114.81
-4.12	-13.32	-10.02	-25.56	-250.01	164.08
0.45	-9.09	-3.39	-3.31	-230.83	194.69
1.57	-5.21	0.70	-57.50	-151.87	123.90
0.34	-4.06	4.46	-58.57	-73.27	40.15
-1.36	-4.30	5.94	-58.53	34.19	-48.17
-1.96	-5.10	3.86	3.67	151.23	-116.31
-4.37	-11.09	-0.80	-4.88	250.00	-206.32
-13.41	-18.95	-14.87	80.29	250.00	-152.62
-19.61	-19.61	-19.61	13.51	112.26	-47.73
-7.46	-19.61	-19.61	-9.90	-168.68	79.28
-3.06	-18.80	-11.12	-50.52	-240.82	149.81
-0.29	-11.90	-5.69	-49.33	-250.01	170.81
0.64	-7.63	0.45	-72.41	-219.66	137.88
0.23	-5.12	4.60	-47.12	-98.38	67.28
-1.24	-4.87	6.68	5.10	-37.31	12.19
-1.18	-3.62	5.47	-44.02	120.01	-53.77
-1.51	-6.80	4.59	24.44	225.91	-118.45
-0.12	-11.79	-9.99	207.47	250.00	-172.77
-19.61	-19.61	-19.61	-80.20	250.00	-187.47
-19.61	-19.61	-19.61	-15.70	28.92	-21.82
-8.18	-18.40	-19.61	68.96	-245.11	152.87
-2.32	-11.22	-12.59	-55.65	-250.01	171.56
0.45	-8.58	-1.14	-23.35	-239.12	155.83
0.57	-6.86	2.62	-11.92	-159.94	74.01
-0.78	-5.81	4.64	-12.48	-54.27	17.92
-2.01	-4.47	5.54	25.98	24.35	-12.06
-2.20	-2.27	4.41	0.14	182.67	-100.15
-4.62	-9.71	1.50	137.07	250.00	-174.15
-10.48	-17.13	-19.61	155.38	250.00	-201.38
-19.61	-19.61	-19.61	-180.20	91.99	-77.88
-8.45	-19.61	-19.61	61.60	-250.01	87.91
-2.13	-11.50	0.74	-198.90	-250.01	122.89
0.20	-9.95	-1.44	-60.81	-250.01	138.06
-0.25	-4.64	2.41	-107.61	-143.08	68.26
-2.49	-6.90	7.20	-40.13	-35.21	5.58
-3.13	-3.01	6.53	-45.12	67.84	-42.78
-2.79	-6.19	6.43	23.69	234.37	-96.51
-1.46	-11.31	-0.94	153.57	250.00	-164.02
-9.48	-19.61	-19.61	-38.50	250.00	-163.51
-19.61	-19.61	-19.61	80.59	37.05	24.27
-8.65	-18.97	-19.61	23.18	-250.01	129.06
-3.67	-13.01	-1.77	-121.69	-250.01	164.57
-0.20	-7.20	-2.02	-42.91	-231.28	143.56
0.59	-7.59	2.64	-55.50	-175.17	45.63
-0.87	-6.66	5.11	6.44	-49.12	31.37
-2.08	-6.45	6.50	-26.52	55.26	-32.48
-2.20	-4.00	5.30	18.94	184.77	-81.75
-2.75	-8.68	-0.72	136.99	250.00	-179.49
-12.31	-17.89	-18.47	112.31	250.00	-194.83
-19.61	-19.61	-19.61	-214.09	118.98	-102.37
-10.04	-19.61	-19.61	81.58	-250.01	130.63
0.48	-9.23	-7.24	-192.40	-250.01	159.63
-0.81	-9.15	-1.22	-30.55	-244.60	147.99
0.85	-5.36	1.47	-90.64	-192.31	39.51
-2.16	-6.24	6.04	-1.30	-67.26	-7.41
-2.38	-5.43	6.17	-32.07	45.81	-38.15
-3.94	-6.41	6.45	20.81	219.62	-57.54
-3.43	-10.31	-0.46	134.82	250.00	-92.24
-12.05	-15.66	-19.61	65.21	250.00	-154.22
-15.05	-19.61	-19.61	-46.09	57.67	-38.24
-6.27	-15.93	-19.61	-32.01	-239.82	87.82
-2.11	-11.42	-11.38	-5.36	-250.01	144.74
0.87	-8.72	-1.55	-95.58	-250.01	106.88
-0.00	-7.01	5.60	-50.23	-160.47	63.69
-2.19	-3.93	7.89	-34.93	-42.79	18.52
-3.67	-4.07	8.88	0.02	120.41	-47.77
-2.58	-5.98	4.88	22.29	250.00	-90.11
-1.45	-10.88	-7.53	163.88	250.00	-133.77
-10.21	-19.05	-19.61	49.30	250.00	-151.12
-14.50	-19.61	-19.61	-66.16	23.53	-82.44
-7.06	-19.61	-19.61	88.29	-250.01	153.97
-1.34	-8.40	-4.95	-121.65	-250.01	201.41
0.08	-6.45	-0.53	-51.24	-189.99	125.70
-1.03	-4.09	3.53	-59.66	-109.27	43.63
-0.54	-5.45	4.25	8.67	-27.40	-26.92
-2.00	-5.44	3.00	-23.15	72.38	-71.21
-3.54	-6.85	2.75	-5.61	201.18	-109.06
-3.46	-10.08	-5.22	90.31	250.00	-122.20
-15.76	-17.03	-19.61	22.87	250.00	-135.53
-15.57	-19.61	-19.61	-65.05	-31.46	-75.14
-4.77	-19.61	-19.61	32.49	-220.53	173.39
0.72	-10.70	-12.02	-126.76	-250.01	188.52
-0.50	-10.64	4.38	-94.07	-218.26	105.59
0.15	-4.52	2.04	-15.27	-184.54	58.15
-1.38	-4.00	4.49	-3.18	-56.47	-24.16
-3.41	-4.54	5.01	-28.89	33.85	-73.37
-4.72	-5.03	4.70	17.30	185.20	-75.38
-6.11	-7.36	0.44	55.28	250.00	-80.16
-9.49	-11.22	-17.78	148.19	250.00	-79.18
-8.11	-19.48	-19.61	-237.37	64.39	-213.90
-7.24	-19.61	-17.41	50.15	-211.13	23.94
-2.51	-12.72	-13.76	-52.93	-250.01	154.30
-2.68	-10.19	0.28	-22.67	-214.57	143.86
-1.83	-3.20	0.64	-51.64	-159.13	104.96
-2.16	-4.44	3.94	-36.28	-42.19	13.41
-3.22	-4.39	4.46	35.47	-2.56	-11.61
-2.56	-4.99	3.23	43.46	127.01	-76.75
-2.48	-8.50	-1.28	119.34	227.72	-124.89
-6.88	-16.17	-14.27	156.13	250.00	-159.58
-19.61	-19.61	-19.61	180.66	215.14	-31.37
-11.16	-19.61	-19.61	4.34	-9.16	34.84
-2.95	-19.61	-19.61	-250.01	-177.66	44.81
-1.74	-13.07	-8.35	-79.39	-250.01	160.47
2.40	-7.52	-3.14	-169.99	-250.01	105.20
0.08	-7.80	3.82	-66.86	-173.89	44.61
0.14	-6.99	3.63	-31.04	-117.40	13.66
-2.26	-6.37	4.58	-28.00	-21.64	-19.94
-3.54	-5.82	4.74	12.49	105.65	-47.45
-5.47	-7.79	4.74	92.37	250.00	-102.77
-13.65	-15.42	-5.99	250.00	250.00	-102.95
-18.15	-19.61	-19.61	156.93	203.54	-70.32
-5.50	-19.61	-19.61	-250.01	-54.39	13.76
-4.96	-19.61	-12.66	129.80	-250.01	205.81
2.35	-10.16	-7.27	-172.12	-250.01	184.93
1.30	-7.46	-0.23	-62.44	-242.02	155.40
1.25	-4.81	4.03	-90.75	-146.66	53.16
-1.16	-4.87	7.25	-22.18	-60.05	-13.28
-1.75	-3.81	7.14	-37.10	79.83	-60.91
-2.39	-2.89	5.17	-22.34	217.69	-111.82
-4.34	-8.73	4.49	88.13	250.00	-130.77
-5.38	-15.71	-19.61	206.24	250.00	-134.43
-19.61	-19.61	-19.61	-206.98	204.16	-98.90
-12.18	-19.61	-19.61	107.32	-250.01	82.26
0.76	-14.15	-7.89	-154.93	-250.01	193.35
-0.35	-9.20	-5.42	18.81	-250.01	168.31
1.39	-5.44	0.46	-70.24	-208.20	92.98
0.57	-5.29	3.05	-65.91	-107.27	-16.49
-0.31	-6.00	3.77	-51.45	-14.02	-42.69
-2.26	-6.59	4.23	-35.85	56.34	-64.19
-3.25	-6.10	3.35	-5.73	179.49	-73.55
-5.02	-8.94	-1.33	-8.31	250.00	-95.06
-17.14	-11.13	-15.89	95.03	250.00	1.00
-19.61	-15.54	-19.61	88.82	95.78	-84.23
-0.68	-19.61	-19.61	-90.04	-188.59	34.97
-1.81	-13.90	-10.21	-60.03	-250.01	89.36
2.28	-9.82	-3.09	-31.83	-250.01	149.51
1.01	-5.77	1.78	-68.74	-193.17	77.39
-0.57	-4.93	6.10	-22.58	-84.52	15.69
-2.87	-4.89	7.29	-25.16	15.89	-43.18
-3.14	-4.96	5.83	50.29	137.59	-51.22
-2.52	-6.59	2.38	45.40	250.00	-119.90
-5.12	-13.10	-12.04	81.40	250.00	-154.47
-16.15	-17.98	-19.61	-129.53	250.00	-42.76
-8.81	-16.68	-19.61	78.26	-192.84	53.03
-4.61	-13.49	-19.23	-18.70	-206.54	127.57
0.64	-11.75	-6.91	-9.19	-250.01	126.96
1.62	-7.67	-2.54	-75.08	-190.54	95.86
0.53	-7.32	2.49	-13.46	-152.84	26.41
-0.47	-4.99	4.24	4.30	-77.50	13.55
-2.51	-5.57	5.85	-22.23	28.45	-47.40
-3.11	-4.30	4.47	15.42	198.90	-67.39
-5.08	-10.59	-1.15	133.88	250.00	-153.86
-13.90	-18.91	-19.61	131.96	250.00	-182.13
-16.92	-19.61	-19.61	-76.80	77.17	-62.11
-7.06	-17.24	-19.61	48.37	-250.01	119.52
-3.00	-10.29	-10.13	-90.43	-250.01	115.99
0.16	-9.08	-1.77	-118.31	-250.01	94.69
1.18	-6.83	1.71	-71.67	-176.39	56.34
-1.33	-6.60	6.45	-99.51	-93.47	-2.85
-2.49	-6.35	8.26	-12.08	33.36	-11.82
-3.32	-5.55	7.16	5.12	186.38	-61.55
-3.66	-9.19	3.06	115.87	250.00	-96.26
-9.59	-13.45	-19.34	224.98	250.00	-113.65
-14.03	-19.61	-19.61	-163.87	146.21	-147.40
-6.06	-19.61	-19.61	-66.29	-236.85	47.56
-0.31	-14.28	-11.66	10.63	-250.01	179.33
3.45	-11.48	-4.46	-137.73	-250.01	98.16
1.85	-8.57	1.81	10.58	-213.89	83.62
0.66	-6.21	4.19	-50.96	-124.24	34.33
-1.35	-6.04	6.83	-5.52	-23.80	20.06
-1.98	-3.54	5.00	-20.75	81.84	-39.58
-3.01	-7.14	2.91	115.43	227.59	-96.74
-7.89	-13.49	-10.36	68.97	250.00	-249.28
-19.61	-19.61	-19.61	28.76	250.00	-156.50
-9.30	-19.61	-19.61	-73.65	-102.92	-49.10
-2.56	-18.34	-19.61	-38.02	-178.60	145.72
0.24	-12.42	-13.18	-73.21	-250.01	177.51
1.74	-8.09	-0.75	-89.64	-250.01	132.05
1.28	-7.01	4.62	-94.06	-182.88	50.73
-0.98	-5.89	6.86	-60.04	-60.83	27.00
-2.62	-4.78	8.08	-70.99	67.22	-11.85
-2.93	-5.85	7.33	-2.39	232.62	-71.90
-3.27	-10.59	-0.69	244.25	250.00	-26.70
-13.00	-18.67	-19.61	170.37	250.00	-87.03
-12.47	-19.61	-19.61	-63.52	140.74	-85.99
-3.48	-19.25	-19.61	48.55	-250.01	151.14
-0.26	-14.90	8.27	-244.16	-250.01	149.60
0.38	-7.41	-2.15	-44.33	-250.01	129.35
0.32	-6.43	2.83	-51.46	-213.21	52.48
0.96	-5.89	4.23	-37.32	-116.28	3.43
-1.59	-4.59	5.56	-75.00	47.20	-53.81
-2.43	-4.78	4.53	15.51	186.54	-90.85
-6.40	-11.30	-0.48	61.14	250.00	-168.23
-17.55	-18.96	-19.61	141.46	250.00	-125.44
-19.61	-19.61	-19.61	-54.06	-23.23	-5.01
-7.77	-19.61	-19.61	25.96	-250.01	194.85
-1.80	-12.40	-9.18	-114.07	-250.01	211.93
0.91	-5.44	0.84	-119.49	-245.08	167.81
-0.83	-4.59	6.77	-76.27	-116.76	48.52
-1.22	-4.72	6.89	-45.07	-27.09	-13.63
-2.86	-5.71	7.71	-6.65	102.30	-56.92
-2.86	-5.33	4.83	29.21	216.93	-97.06
-2.71	-9.38	-3.07	132.88	250.00	-153.21
-15.48	-16.51	-19.18	122.81	250.00	-118.36
-19.61	-19.61	-19.61	-163.10	8.14	-91.79
-10.24	-19.61	-19.61	-41.82	-238.27	65.96
-2.19	-10.68	-11.75	-90.87	-250.01	130.39
-0.79	-10.22	-0.62	-85.20	-250.01	94.99
0.18	-6.95	2.01	-29.88	-189.04	56.91
-0.97	-7.15	5.81	-55.76	-72.85	-15.03
-3.76	-6.28	8.11	-56.60	36.93	-43.38
-3.94	-6.45	8.42	61.80	180.31	-51.45
-3.22	-8.25	-0.02	164.10	250.00	-98.12
-15.93	-12.93	-17.53	187.05	250.00	-82.45
-19.61	-19.61	-19.61	-74.98	47.94	-105.54
-5.50	-19.61	-19.61	-110.81	-167.00	32.02
-2.51	-16.34	-3.51	-146.51	-250.01	112.47
0.52	-10.15	-2.61	-116.95	-250.01	99.51
-0.23	-8.47	4.36	-27.54	-221.95	57.29
-1.06	-5.42	6.12	-50.81	-99.55	8.40
-3.77	-5.54	10.78	-26.38	46.46	-29.10
-3.25	-5.25	9.16	60.34	200.64	-57.54
-1.51	-9.21	-0.27	177.91	250.00	-106.86
-10.28	-14.72	-19.61	55.78	250.00	-137.98
-18.61	-19.61	-19.61	-98.13	117.02	-106.12
-8.70	-19.61	-19.61	0.12	-227.94	61.05
-1.59	-15.63	-7.41	-99.35	-250.01	116.15
0.08	-12.23	-3.16	-120.47	-250.01	132.86
2.05	-7.78	1.37	-30.85	-232.83	100.82
-0.24	-6.96	6.10	-78.00	-97.00	21.61
-2.84	-5.39	8.77	-25.73	-0.43	5.98
-3.73	-5.29	9.55	10.80	168.28	-58.34
-4.11	-8.95	2.71	130.89	250.00	-91.65
-12.93	-11.68	-19.20	176.01	250.00	-128.03
-18.67	-19.61	-19.61	-227.49	98.91	-157.32
-6.80	-19.61	-19.61	15.18	-239.05	46.09
-1.36	-12.71	-9.76	-130.14	-250.01	120.45
-2.15	-13.33	-2.53	-91.65	-250.01	113.34
-0.31	-8.26	1.78	-48.39	-211.66	86.39
-1.27	-7.34	5.88	-11.15	-88.56	24.85
-3.16	-4.80	7.54	-7.36	-13.97	1.76
-3.28	-4.08	7.91	32.95	148.58	-45.36
-3.45	-5.26	2.73	66.82	250.00	-105.51
-9.31	-12.99	-9.59	177.53	250.00	-175.19
-12.36	-19.61	-19.61	-98.86	167.68	-175.40
-9.33	-19.61	-19.61	-104.55	3.50	1.84
-6.23	-17.55	-17.22	111.84	-250.01	147.37
-3.80	-14.27	-3.51	-146.67	-250.01	108.39
-0.24	-8.85	-0.46	77.84	-250.01	144.82
-0.04	-5.87	4.07	-69.91	-138.71	47.44
-2.33	-4.07	7.07	18.20	-54.25	18.95
-2.38	-4.09	7.92	-85.63	98.64	-61.07
-2.81	-6.14	4.80	25.93	250.00	-85.67
-5.60	-12.85	-6.74	115.83	250.00	-123.77
-17.87	-19.43	-19.61	83.26	250.00	-76.74
-17.55	-19.61	-19.61	-7.39	59.44	12.85
-6.39	-16.84	-19.61	-74.38	-188.87	92.66
-2.26	-13.46	-10.25	-48.50	-250.01	122.72
-0.19	-13.64	-0.96	-129.69	-238.09	93.17
-0.80	-9.89	4.37	-14.14	-200.63	127.50
0.45	-3.63	4.36	-10.00	-106.10	69.17
-2.43	-2.80	7.99	-5.36	14.86	-23.17
-2.48	-2.34	6.87	55.23	198.17	-95.40
-3.87	-8.79	0.09	115.28	250.00	-172.41
-15.91	-14.39	-19.61	114.88	250.00	-173.54
-15.32	-19.61	-19.61	-169.71	152.24	-123.18
-4.45	-19.27	-19.61	-52.45	-242.04	72.12
-2.99	-12.38	-11.05	-19.83	-250.01	124.90
-0.19	-9.10	-2.72	-55.49	-250.01	143.52
0.38	-9.24	3.98	-34.67	-207.43	71.75
0.51	-4.76	5.08	-62.83	-71.60	63.08
-1.78	-3.57	6.34	-26.65	61.75	-4.49
-3.12	-2.44	5.05	30.98	203.71	-75.06
-4.36	-8.35	-2.95	133.81	250.00	-181.99
-15.77	-17.28	-19.61	128.81	250.00	-172.66
-16.06	-19.61	-19.61	-119.30	55.67	-124.81
-6.23	-19.61	-19.61	39.83	-250.01	137.23
-2.01	-12.51	-8.79	-47.95	-250.01	165.14
0.01	-10.35	-1.03	-35.50	-250.01	117.24
0.22	-9.01	2.34	19.81	-188.63	76.59
0.27	-4.65	4.42	-50.87	-7.16	79.99
-1.52	-3.86	5.57	-53.87	47.77	21.66
-2.21	-2.24	4.49	25.81	205.03	-86.86
-5.75	-9.95	-0.18	113.09	250.00	-191.95
-12.36	-19.61	-19.61	96.45	250.00	-216.13
-17.66	-19.61	-19.61	-63.99	116.44	-25.72
-3.27	-18.68	-19.61	61.72	-250.01	120.73
-3.57	-14.08	-10.51	-100.41	-250.01	112.65
-0.01	-10.26	-2.02	-14.25	-250.01	144.68
0.63	-6.79	3.02	-24.45	-160.63	92.68
-1.25	-6.38	5.38	50.30	-96.18	53.46
-1.82	-3.09	4.62	-26.09	-4.74	-17.02
-3.52	-4.74	5.58	57.14	109.84	-81.21
-4.26	-6.37	-1.25	44.93	250.00	-180.23
-18.94	-14.42	-17.26	79.05	250.00	-228.38
-17.03	-19.61	-19.61	-77.17	186.00	-94.23
-0.18	-19.61	-19.61	-169.99	-80.35	-35.50
-3.45	-15.30	-11.54	28.24	-250.01	108.01
-0.13	-9.96	-7.54	-154.87	-250.01	76.80
-1.05	-10.46	2.47	26.17	-236.53	83.48
-0.33	-6.29	4.32	-34.26	-144.42	11.39
-2.62	-8.27	8.67	-0.79	-48.13	25.70
-2.49	-6.18	5.64	46.91	29.88	32.62
-3.36	-3.99	1.17	67.50	176.16	-12.46
-6.68	-8.70	-2.22	-0.56	250.00	-159.02
-19.61	-9.50	-14.59	190.18	250.00	-83.43
-12.84	-19.61	-19.61	-200.30	180.26	-214.18
-3.97	-19.61	-19.61	-40.22	-162.05	30.88
-0.69	-15.57	-10.20	-88.20	-250.01	126.93
0.24	-10.23	-3.10	-75.17	-250.01	128.04
0.62	-7.58	2.31	-13.87	-244.61	109.47
-0.97	-3.86	4.68	-26.76	-105.89	29.19
-2.26	-4.48	7.29	-70.64	-19.12	-29.12
-3.37	-3.08	7.26	-1.68	168.75	-80.87
-3.22	-8.06	3.23	24.23	250.00	-146.66
-13.31	-15.74	-16.94	208.59	250.00	-171.51
-17.97	-19.61	-19.61	-205.05	112.51	-179.62
-11.48	-19.61	-19.61	22.90	-191.79	120.08
-0.30	-11.21	-15.25	-26.41	-250.01	224.43
1.61	-11.29	-1.09	-87.13	-250.01	169.23
1.58	-6.64	0.47	-31.75	-232.13	122.04
0.69	-6.17	5.69	-73.27	-109.80	19.96
-2.25	-4.99	7.70	-14.96	-50.78	-7.92
-2.33	-3.68	8.27	7.20	123.71	-80.66
-1.97	-6.86	5.26	65.45	250.00	-167.36
-4.28	-13.98	-9.89	154.74	250.00	-220.04
-18.80	-19.61	-19.61	-0.92	250.00	-173.22
-12.15	-19.61	-19.61	-21.63	-5.41	30.88
-6.25	-19.61	-15.03	96.99	-250.01	199.98
0.15	-11.02	-6.56	-64.66	-250.01	236.37
1.77	-8.61	0.42	-21.42	-206.14	172.83
0.26	-4.34	3.21	-51.23	-93.44	56.83
-1.50	-4.99	5.37	-43.96	-41.67	-24.26
-3.15	-3.63	5.70	-12.50	76.85	-75.93
-4.73	-7.34	4.08	-32.49	250.00	-152.67
-10.01	-10.43	-5.17	121.00	250.00	-145.73
-19.61	-19.39	-19.61	8.22	250.00	-144.68
-5.13	-19.61	-19.61	-148.99	-60.09	-37.49
-1.25	-19.61	-17.35	-5.73	-250.01	147.85
2.26	-12.28	-7.57	-40.26	-250.01	216.43
2.68	-7.64	1.05	-124.88	-243.53	122.05
0.83	-3.98	5.07	-47.12	-134.36	35.39
-0.79	-4.03	6.87	-40.62	-11.38	-50.33
-2.55	-4.06	6.00	16.01	101.76	-103.20
-3.77	-8.67	3.68	24.76	250.00	-173.59
-8.55	-15.64	-4.82	217.68	250.00	-167.70
-16.47	-19.61	-19.61	44.15	237.08	-97.31
-13.66	-19.61	-19.61	-250.01	-70.15	27.12
-1.77	-16.13	-16.34	71.99	-250.01	238.91
-0.00	-12.03	-4.23	-235.70	-250.01	126.77
1.99	-6.75	0.57	36.89	-243.27	143.84
0.27	-4.50	3.40	-92.14	-148.09	0.79
-2.32	-5.10	6.38	49.54	-47.67	-17.49
-2.74	-4.30	5.92	-40.10	54.42	-127.80
-3.32	-9.03	6.69	23.46	242.29	-169.12
-4.41	-16.36	-5.16	151.23	250.00	-187.03
-15.34	-19.61	-19.61	-65.29	250.00	-94.18
-18.76	-19.61	-19.61	-96.64	74.29	14.60
-5.54	-18.97	-19.14	-36.67	-236.22	140.03
-0.97	-10.94	-10.95	-134.20	-250.01	174.67
-0.88	-9.13	-0.03	-115.70	-235.40	124.74
-0.28	-5.29	1.31	-41.98	-162.99	83.16
-1.41	-3.62	2.67	-68.02	-50.72	-5.76
-3.30	-4.02	4.38	-50.70	41.47	-65.54
-2.57	-5.69	3.70	-19.43	185.61	-137.67
-2.46	-12.61	0.31	63.78	250.00	-182.16
-9.15	-19.61	-19.61	22.73	250.00	-145.54
-19.61	-19.61	-19.61	22.50	64.62	18.47
-14.65	-19.61	-19.61	96.96	-250.01	195.45
-0.75	-8.40	-17.79	-0.50	-250.01	216.88
-0.65	-5.45	-6.18	-54.78	-238.47	192.95
-0.96	-2.37	0.95	-134.72	-117.67	111.51
-2.61	-5.18	6.37	-88.76	-21.94	3.39
-2.09	-5.30	5.06	-34.77	67.69	-60.72
-2.76	-8.06	3.88	-8.91	176.12	-110.73
-1.57	-10.13	-2.32	71.53	250.00	-147.10
-6.03	-13.55	-13.14	-17.03	249.78	-201.03
-11.54	-16.47	-19.61	24.15	177.10	-106.76
-19.61	-19.61	-19.61	95.43	104.33	11.93
-12.56	-19.04	-19.61	-88.69	-208.32	106.67
-4.16	-14.12	-14.06	-73.13	-228.63	188.28
0.15	-8.47	-6.00	-123.44	-250.01	143.11
-0.26	-6.99	0.84	-75.37	-237.69	68.54
-1.27	-4.51	3.98	-10.09	-104.77	29.21
-2.16	-5.72	6.12	-34.39	12.71	-48.78
-2.55	-6.99	5.76	15.79	128.99	-77.36
-2.85	-9.65	4.98	127.19	250.00	-111.19
-3.84	-16.01	-11.63	230.59	250.00	-177.74
-11.86	-19.61	-19.61	-14.22	174.44	-87.00
-19.61	-19.61	-17.97	11.89	-79.42	45.92
-7.62	-12.54	-19.61	-35.03	-203.57	129.80
-4.83	-12.64	-6.95	-143.02	-250.01	103.08
-3.01	-6.94	-2.89	-101.89	-221.40	101.86
-2.66	-7.73	2.83	-166.88	-134.03	19.92
-2.55	-7.53	6.46	-20.12	-12.56	12.83
-2.52	-7.60	6.08	9.03	107.33	-28.58
-2.82	-8.62	5.31	73.96	221.64	-67.18
-1.72	-12.32	-6.13	222.69	250.00	-124.90
-9.85	-19.61	-19.61	-83.93	232.65	-165.43
-19.61	-19.61	-19.61	-17.40	-94.47	17.96
-8.42	-12.28	-19.61	8.53	-250.01	131.52
-3.30	-8.02	0.91	-177.34	-250.01	88.44
-0.85	-6.74	0.07	-71.38	-237.68	92.65
-1.21	-7.78	6.02	-59.79	-101.63	27.05
-1.77	-7.65	6.21	-75.60	49.57	-3.45
-3.23	-7.98	6.45	-8.52	152.26	-25.01
-2.76	-8.41	4.93	90.84	250.00	-74.57
-1.03	-12.00	-9.44	202.97	250.00	-137.09
-8.42	-19.61	-19.61	-97.45	216.86	-126.44
-19.47	-19.61	-19.61	25.71	-166.23	34.30
-6.14	-12.82	-19.61	50.76	-250.01	161.40
-4.47	-9.19	-6.01	-110.77	-250.01	129.38
-1.79	-6.17	0.72	-87.96	-171.25	134.17
-0.93	-6.65	3.51	-62.10	-111.66	25.84
-1.23	-5.72	4.15	-15.37	21.26	-2.32
-1.64	-7.18	5.00	-17.67	113.67	-45.08
-0.95	-7.58	3.96	63.38	223.55	-79.52
1.70	-12.20	-10.56	166.84	250.00	-142.49
-9.08	-19.61	-19.61	-34.88	210.11	-184.22
-19.61	-19.61	-19.61	32.14	-23.20	-9.15
-8.08	-19.61	-19.61	-9.57	-250.01	126.53
-2.38	-10.35	-2.07	-123.45	-250.01	185.21
0.62	-6.23	-1.17	-109.45	-226.63	139.26
-0.13	-5.45	4.16	-59.88	-119.03	48.05
-0.79	-5.22	6.21	-49.98	-2.97	1.05
-2.36	-6.53	6.64	4.23	135.91	-36.86
-2.16	-8.53	6.30	57.22	230.69	-66.70
2.43	-13.89	-15.11	242.60	250.00	-133.83
-12.61	-19.61	-19.61	-174.51	163.42	-216.31
-19.61	-18.00	-19.61	110.32	-88.66	14.44
-8.03	-13.48	-19.61	-82.21	-240.62	78.42
-4.02	-11.52	-11.58	-34.30	-250.01	123.52
-0.13	-9.34	-2.38	-74.02	-241.25	108.99
0.69	-8.91	2.71	11.25	-142.24	43.21
0.39	-5.62	3.77	13.51	-68.63	6.67
-1.08	-6.51	5.09	8.73	55.38	-42.10
-1.54	-5.98	5.15	-22.67	149.80	-78.82
-1.57	-8.96	0.92	95.71	250.00	-111.31
-3.26	-19.61	-19.61	30.92	250.00	-199.51
-19.61	-19.61	-19.61	-51.10	166.98	-41.91
-9.19	-19.61	-19.61	-13.82	-250.01	58.66
-5.13	-13.57	-10.33	-81.36	-250.01	144.66
-0.72	-7.30	-4.74	-90.17	-250.01	162.44
0.97	-6.84	0.92	-56.79	-223.24	96.41
-1.64	-4.97	4.58	-20.93	-105.56	39.38
-2.21	-5.99	5.63	-78.71	16.34	-39.54
-3.12	-5.15	7.02	23.13	148.47	-55.15
-1.38	-8.56	5.14	106.89	250.00	-113.87
-0.15	-14.37	-14.87	242.38	250.00	-189.70
-11.39	-19.61	-19.61	-143.00	244.45	-160.93
-18.40	-19.61	-19.61	111.86	-233.91	92.23
-1.42	-13.50	-19.61	43.63	-250.01	250.00
-0.69	-9.18	-4.99	-175.87	-250.01	168.53
0.64	-7.03	0.37	-103.76	-206.71	111.26
0.53	-6.54	3.75	-74.45	-96.08	-13.13
-1.31	-7.08	5.72	-29.55	-25.32	-63.36
-1.95	-7.13	6.16	-5.07	93.81	-80.20
-2.08	-8.74	5.35	26.85	225.11	-117.79
-3.87	-12.60	-0.98	148.92	250.00	-117.35
-3.12	-19.61	-19.61	-35.60	250.00	-81.26
-16.38	-19.61	-19.61	-8.64	-10.12	71.45
-7.95	-16.55	-19.61	-20.64	-250.01	115.80
-1.90	-14.20	-5.10	-143.70	-250.01	148.69
1.31	-7.47	-1.91	-66.50	-250.01	168.25
1.24	-4.95	1.89	-98.02	-162.88	60.64
-0.79	-6.50	5.30	-103.29	-101.61	-22.26
-2.02	-5.67	6.31	-79.91	-15.19	-44.29
-1.47	-7.57	4.89	-37.06	148.81	-67.34
-2.73	-9.16	5.07	87.25	250.00	-135.81
-5.51	-17.39	-19.00	200.51	250.00	-180.88
-19.61	-19.61	-19.61	-125.99	222.57	-65.64
-16.03	-19.61	-19.61	143.25	-250.01	148.50
0.91	-9.63	-16.32	-39.02	-250.01	227.89
0.73	-6.33	-5.44	-23.02	-250.01	218.97
1.00	-4.36	0.91	-118.46	-150.06	79.51
-0.82	-5.32	5.63	-83.48	-45.28	8.88
-1.68	-6.38	5.58	-77.46	47.42	-47.43
-2.59	-5.81	5.77	-8.90	149.83	-71.99
-1.89	-9.03	4.47	63.93	250.00	-136.53
-1.76	-16.15	-14.62	201.04	250.00	-189.43
-15.63	-19.61	-19.61	-132.96	250.00	-112.72
-19.01	-19.20	-19.61	30.18	-112.53	163.34
-3.78	-16.85	-19.61	-103.76	-250.01	139.89
-1.08	-9.60	-5.00	-77.91	-250.01	164.33
-0.15	-4.76	-0.49	-84.49	-213.56	99.93
-0.20	-5.39	2.89	-72.95	-119.30	12.38
-0.48	-5.95	4.16	-118.32	-21.56	-54.37
-1.61	-6.01	5.04	-93.36	93.84	-49.17
-1.23	-7.13	4.99	-6.78	206.76	-78.17
-0.10	-9.10	-3.76	149.84	250.00	-95.90
-8.89	-19.61	-19.61	30.72	250.00	-223.04
-19.61	-19.61	-19.61	50.75	9.66	5.32
-13.62	-18.61	-19.61	88.15	-250.01	164.46
-4.10	-9.96	-9.58	-76.53	-250.01	218.65
1.98	-5.53	-4.42	-96.90	-250.01	124.58
-1.63	-3.91	5.88	-54.01	-165.42	49.68
-0.24	-4.02	6.60	-14.46	-30.89	-6.44
-1.71	-5.40	7.09	-35.66	100.34	-56.51
-0.31	-6.84	5.24	21.52	232.55	-59.96
2.65	-9.06	-9.74	60.50	250.00	-114.85
-6.76	-19.61	-19.61	-180.96	250.00	-210.04
-19.61	-19.61	-19.61	58.56	96.83	45.27
-11.52	-13.71	-19.61	91.93	-250.01	133.98
-1.32	-9.76	-15.08	-3.39	-250.01	165.30
1.96	-5.73	-2.16	-70.34	-250.01	130.95
0.70	-5.68	5.06	-50.49	-230.22	94.24
0.71	-5.41	7.53	-18.14	-71.22	22.54
-0.14	-3.49	5.64	0.21	51.32	-19.20
-1.01	-5.46	6.17	-46.22	208.68	-94.34
1.76	-8.85	-2.69	6.01	250.00	-142.84
-2.82	-19.61	-19.61	80.00	250.00	-133.17
-19.37	-19.61	-19.61	40.83	91.91	-45.08
-12.84	-19.61	-19.61	-13.08	-250.01	62.65
-1.94	-12.65	-11.96	-85.09	-250.01	148.73
1.55	-8.33	-4.42	-66.30	-250.01	112.17
0.15	-7.23	3.01	-66.77	-250.01	41.21
-0.03	-6.38	5.56	-37.89	-96.14	28.80
-1.76	-6.04	6.98	-41.32	10.19	-19.26
-1.47	-6.01	6.04	0.92	153.00	-35.60
-0.45	-6.64	2.44	-4.04	250.00	-68.56
-0.59	-11.70	-15.06	128.54	250.00	-82.54
-10.83	-17.18	-19.61	-121.93	226.50	-169.29
-13.07	-19.61	-19.61	-35.58	-154.03	-33.98
-3.32	-12.23	-19.61	-22.13	-250.01	132.42
-0.07	-9.74	-7.81	-84.28	-250.01	155.19
-1.09	-6.63	0.41	-104.73	-246.59	113.34
-1.19	-6.02	4.98	-59.37	-119.50	55.00
-2.04	-5.95	5.94	0.31	5.12	21.07
-2.55	-5.43	4.49	25.48	82.43	-34.37
-2.51	-6.31	3.11	76.29	207.95	-52.00
-1.44	-9.10	-3.68	171.65	250.00	-85.35
-3.81	-13.50	-19.61	180.63	250.00	-97.88
-10.55	-14.82	-19.61	1.21	186.03	-19.86
-7.61	-11.53	-19.61	-48.57	-125.84	31.42
-0.14	-15.04	-18.26	-119.56	-250.01	36.19
-1.02	-11.37	-6.43	-119.01	-250.01	52.19
-0.61	-8.83	0.12	-49.79	-245.03	46.24
-0.19	-5.91	2.76	-6.01	-160.17	3.71
-2.32	-5.93	5.94	35.42	-56.78	-28.81
-2.51	-4.93	5.10	12.77	51.84	-56.57
-3.03	-6.48	4.80	31.23	203.41	-63.37
-3.06	-10.25	-3.05	95.59	250.00	-58.37
-4.67	-12.39	-19.61	11.08	250.00	-15.49
-13.77	-10.24	-19.61	-51.83	99.44	-59.37
-2.89	-14.07	-19.61	-10.01	-227.81	-37.87
-2.57	-14.08	-7.41	-106.43	-250.01	-7.40
0.50	-9.74	-1.87	-45.22	-250.01	81.26
1.66	-7.19	1.59	-21.00	-203.34	26.34
-1.83	-7.70	6.92	-32.53	-136.03	-6.57
-2.24	-4.95	7.50	18.20	3.46	13.02
-2.54	-4.96	7.60	-4.68	173.64	-17.63
-0.23	-6.04	1.66	94.99	250.00	-25.57
-1.06	-10.14	-19.61	224.20	250.00	-103.29
-19.61	-13.51	-19.61	-230.47	166.51	-157.78
-4.40	-19.61	-19.61	-42.50	-250.01	-27.27
4.19	-14.24	1.31	-250.01	-250.01	110.10
2.15	-7.20	-1.72	-84.74	-250.01	126.12
1.33	-7.32	3.81	-91.10	-154.05	48.68
-1.95	-6.01	6.21	-71.47	-54.07	-9.96
-3.57	-6.65	7.12	13.02	40.83	-28.30
-3.44	-6.96	6.47	14.33	190.78	-56.18
-2.23	-9.67	1.80	135.44	250.00	-38.42
-6.20	-11.91	-18.26	169.68	250.00	-49.14
-11.44	-16.03	-19.61	-52.00	98.90	-44.95
-8.97	-15.64	-19.61	-7.42	-231.28	78.20
2.62	-6.78	-15.40	-96.91	-250.01	101.78
0.85	-9.10	-0.90	-80.12	-250.01	95.44
0.46	-4.98	1.92	-75.20	-209.95	49.54
-1.31	-6.18	5.38	-33.92	-82.69	-6.36
-2.51	-6.72	5.81	-35.86	-14.46	-34.46
-3.49	-6.66	6.20	40.77	114.46	-12.30
-2.90	-7.52	4.89	12.57	250.00	-50.33
-6.49	-11.06	-2.96	234.36	250.00	-14.31
-7.67	-13.13	-19.61	-56.98	250.00	-58.99
-13.40	-17.83	-19.61	17.45	-39.54	-6.19
-6.66	-15.09	-19.61	-14.57	-250.01	111.47
-3.68	-7.73	-6.49	-45.98	-250.01	151.86
0.02	-5.52	0.72	-120.83	-163.82	102.74
-0.29	-5.87	4.62	-53.60	-68.64	27.10
-1.57	-5.26	4.37	-37.53	9.00	-25.96
-2.43	-6.70	5.09	22.26	104.04	-36.50
-3.22	-7.23	4.63	36.17	210.17	-64.69
-4.22	-10.68	-5.70	241.56	250.00	-46.25
-4.61	-13.36	-19.61	-118.34	250.00	-125.64
-16.01	-16.75	-19.61	105.53	-18.76	40.84
-6.61	-8.27	-19.61	31.95	-250.01	81.99
-4.99	-9.74	-5.96	-57.40	-250.01	45.26
0.44	-5.49	-1.57	-59.21	-250.01	70.08
-1.45	-6.48	5.28	-51.99	-154.62	4.44
-0.56	-4.33	6.20	2.76	-42.08	14.72
-2.11	-5.33	6.91	-29.69	101.63	-10.82
-1.13	-5.24	5.14	-4.94	212.31	-19.55
-3.29	-7.96	-2.57	167.41	250.00	-19.55
-2.45	-14.24	-19.61	93.75	250.00	-134.33
-19.61	-19.61	-19.61	-35.26	82.58	-2.07
-10.12	-14.21	-19.61	39.92	-250.01	33.59
-2.24	-17.73	5.76	-250.01	-250.01	57.60
0.10	-4.55	-0.36	-47.27	-250.01	110.12
-0.74	-4.74	4.58	-71.43	-136.44	37.67
-1.63	-4.28	7.15	-7.42	-39.89	-6.39
-2.64	-4.95	6.85	-6.87	78.49	-40.96
-1.93	-4.89	5.25	50.35	212.33	-50.64
-1.05	-8.99	-0.06	160.91	250.00	-63.14
-2.71	-15.39	-19.61	153.05	250.00	-38.74
-19.61	-11.78	-19.61	-182.90	55.06	-114.46
-8.36	-19.61	-19.61	14.35	-250.01	38.19
-0.26	-8.31	-11.78	-174.68	-250.01	120.42
0.59	-7.13	-1.58	3.58	-250.01	148.97
0.07	-5.38	5.21	-125.90	-172.62	26.96
-2.21	-4.86	8.37	-17.97	-81.66	4.94
-3.06	-4.81	8.89	-21.47	95.39	-32.94
-3.01	-5.69	7.96	41.46	212.49	-40.30
-1.49	-9.42	2.23	218.83	250.00	-25.30
-3.74	-12.66	-19.61	159.76	250.00	-63.10
-19.61	-19.61	-19.61	-19.02	24.29	34.42
-11.16	-11.09	-19.61	-87.08	-250.01	87.73
-2.92	-13.71	16.57	-250.01	-250.01	94.36
-0.68	-3.11	-0.36	-112.45	-213.63	109.85
-1.30	-3.46	4.64	-102.94	-104.74	22.35
-1.33	-3.01	5.15	-51.53	0.98	-42.62
-2.46	-5.20	5.50	5.84	76.52	-83.95
-2.23	-6.55	4.36	64.68	184.91	-84.67
1.54	-9.47	-1.97	60.53	250.00	-124.47
-1.83	-17.59	-19.61	-51.62	250.00	-160.74
-12.39	-18.76	-19.61	59.82	120.29	-8.33
-15.33	-11.05	-19.61	11.08	-157.42	35.74
-4.04	-13.91	-19.61	3.92	-250.01	170.11
-0.39	-3.56	-2.57	-126.18	-250.01	137.89
-0.01	-6.31	1.43	-129.23	-219.63	85.43
-0.61	-5.33	3.46	-77.49	-108.04	37.22
-1.64	-6.30	4.94	-52.32	1.01	-37.03
-3.06	-6.62	5.20	5.38	89.12	-70.08
-3.26	-7.45	4.29	46.03	221.89	-90.95
-4.06	-11.89	-3.68	220.53	250.00	-110.12
-7.03	-19.17	-19.61	-22.70	250.00	-124.68
-18.08	-16.93	-19.61	-59.98	-23.65	21.10
-3.62	-11.58	-19.61	63.53	-250.01	181.75
-4.02	-4.21	-2.95	-199.87	-250.01	43.57
-1.16	-3.90	0.67	-29.80	-189.11	62.12
-0.52	-4.95	4.21	-55.83	-48.76	-4.75
-1.57	-6.23	4.37	17.30	67.76	-63.70
-1.99	-8.84	4.21	18.94	135.80	-119.23
-0.91	-10.60	-1.06	125.89	250.00	-127.69
0.87	-16.46	-18.86	-1.90	250.00	-182.39
-10.04	-19.61	-19.61	-42.83	137.70	-23.42
-8.82	-10.23	-19.61	31.70	-165.52	44.00
-4.32	-12.71	-14.57	-44.54	-250.01	44.66
-1.73	-9.76	-9.82	-27.17	-250.01	46.40
0.17	-10.98	-0.40	-67.94	-250.01	72.07
-1.56	-7.18	4.34	-45.05	-152.84	71.54
-1.03	-7.49	6.10	-2.36	-11.76	37.87
-2.32	-5.76	5.32	-12.09	109.98	3.29
-1.63	-7.61	4.73	33.57	250.00	-34.52
-0.29	-9.70	-7.61	197.16	250.00	-89.60
1.51	-19.61	-19.61	-219.34	250.00	-229.17
-16.69	-18.80	-19.61	118.69	-52.64	52.07
-2.08	-8.87	-19.61	-58.10	-250.01	107.87
-5.48	-10.67	-5.32	-59.54	-250.01	86.21
0.40	-6.44	-0.58	-69.80	-250.01	120.19
-1.06	-5.03	3.51	-38.90	-97.55	66.41
-1.72	-6.21	5.41	-49.52	3.32	-11.15
-2.20	-4.81	4.64	22.09	96.77	-31.01
-2.42	-7.02	4.76	52.48	205.46	-77.98
-2.47	-9.33	-3.89	203.77	250.00	-115.49
1.30	-17.63	-19.61	-181.94	250.00	-196.48
-16.38	-19.28	-19.61	79.36	-20.74	26.96
-6.54	-11.20	-19.61	-57.99	-250.01	64.77
-3.11	-14.11	0.33	-136.56	-250.01	71.25
0.03	-6.09	-2.15	-71.63	-250.01	125.06
-1.16	-5.72	4.17	-109.49	-129.33	26.90
-1.01	-4.36	5.36	-35.42	-16.88	-9.40
-2.82	-5.40	6.18	-34.28	94.05	-68.48
-2.17	-6.07	4.60	29.97	245.57	-76.91
1.41	-9.52	-2.40	155.61	250.00	-112.09
11.03	-18.85	-19.61	-197.75	250.00	-250.01
-19.61	-19.61	-19.61	98.73	32.73	23.99
-10.06	-9.85	-19.61	25.04	-250.01	34.14
1.55	-19.61	2.60	-142.77	-250.01	166.97
1.62	-4.87	-0.45	-71.68	-250.01	148.08
-0.19	-5.46	4.62	-62.97	-169.71	39.65
-0.99	-3.41	5.55	-15.29	-107.23	19.53
-2.53	-6.44	7.65	14.98	63.44	-61.43
-1.15	-4.70	3.26	31.60	182.42	-75.14
0.02	-10.86	-0.16	72.95	250.00	-122.26
2.52	-13.70	-19.61	20.60	250.00	-157.81
-19.61	-19.61	-19.61	-172.09	164.22	-27.76
-17.14	-13.63	-19.61	56.31	-250.01	23.30
0.20	-17.07	-15.76	-71.22	-250.01	134.20
2.14	-9.57	-5.39	1.37	-250.01	221.22
1.01	-4.58	0.02	-60.79	-206.67	95.87
-1.48	-5.13	4.94	-9.60	-100.54	3.34
-1.28	-5.90	4.90	-26.89	5.42	-42.81
-2.76	-5.92	5.70	39.05	119.21	-40.12
-1.29	-7.47	4.43	35.74	250.00	-76.12
1.67	-10.13	-6.38	199.41	250.00	-67.06
0.93	-19.61	-19.61	-202.30	250.00	-177.27
-17.14	-18.17	-19.61	135.29	-91.32	68.35
-3.06	-10.00	-19.61	-45.37	-250.01	126.47
-4.53	-8.94	-6.45	-38.34	-250.01	88.11
1.40	-4.71	-0.60	-65.71	-248.79	93.10
-0.03	-5.76	3.90	-35.84	-61.99	11.54
-1.95	-6.69	4.76	-42.17	1.57	-27.91
-2.70	-7.24	5.45	3.28	88.15	-35.82
-2.24	-6.20	3.92	51.51	207.01	-58.89
-3.00	-11.38	-5.02	186.43	250.00	-77.17
-7.22	-17.47	-19.61	-45.53	250.00	-153.49
-19.01	-19.48	-19.61	-113.87	-27.94	-41.39
-6.17	-13.25	-19.61	27.18	-250.01	68.48
-4.22	-11.40	-2.74	-200.06	-250.01	69.16
0.13	-8.31	0.72	5.73	-190.58	95.50
0.04	-6.43	3.01	-38.45	-71.48	25.77
-1.13	-6.43	4.32	28.92	-9.13	-4.26
-1.39	-6.54	4.17	-12.28	69.77	-44.29
-1.50	-6.91	3.24	64.58	178.81	-71.54
0.11	-9.81	-7.76	123.92	250.00	-93.19
-1.70	-17.96	-19.61	-80.76	250.00	-110.91
-17.78	-14.94	-19.61	27.42	-16.34	28.28
-3.06	-11.95	-19.61	-99.22	-250.01	50.07
-3.02	-11.88	-4.91	-70.76	-250.01	78.30
1.87	-5.89	-0.22	-58.74	-250.01	111.29
0.28	-5.95	3.94	-94.33	-142.11	-15.26
-2.14	-5.95	6.90	-31.82	-29.53	-30.96
-3.12	-6.21	7.05	14.02	58.34	-51.89
-2.84	-7.21	5.48	105.50	223.76	-58.08
-2.96	-12.13	-4.24	250.00	250.00	-66.87
-2.82	-19.61	-19.61	-144.88	250.00	-160.27
-19.61	-16.83	-19.61	-72.86	14.86	132.68
-2.21	-7.74	-19.61	-29.37	-250.01	91.82
-4.71	-8.07	0.69	-219.07	-250.01	-25.80
-0.58	-3.55	2.91	-3.50	-249.87	53.38
0.27	-5.45	5.38	-11.35	-67.00	-38.41
-1.36	-5.74	5.80	23.67	-19.90	-86.41
-1.39	-6.59	4.94	50.63	89.89	-88.61
-0.93	-7.65	2.72	16.46	219.70	-105.30
0.17	-13.26	-9.45	162.00	250.00	-97.36
-9.38	-19.29	-19.61	-242.11	237.52	-78.37
-19.61	-18.61	-19.61	108.50	-24.99	96.95
-3.51	-9.15	-19.61	-26.24	-250.01	91.72
-3.33	-12.16	3.60	-161.02	-250.01	71.11
-0.36	-6.30	0.38	-31.32	-250.01	144.96
0.28	-4.84	5.97	-94.96	-109.20	70.26
-1.00	-3.38	6.32	-75.40	6.71	-9.19
-2.31	-4.32	7.01	-25.35	111.47	-65.61
-1.75	-5.48	4.66	37.27	240.71	-111.68
-2.66	-10.42	-4.51	250.00	250.00	-112.96
-0.18	-19.61	-19.61	-211.19	250.00	-250.01
-19.61	-19.61	-19.61	33.12	23.59	53.84
-9.04	-9.43	-19.61	-39.06	-250.01	56.32
-4.29	-18.38	13.21	-250.01	-250.01	60.23
-0.53	-5.43	-3.56	-35.39	-248.02	111.27
-1.19	-6.51	4.69	-99.49	-129.86	15.64
-1.58	-4.50	6.67	-6.96	-39.22	-0.41
-1.28	-5.27	7.18	20.76	89.61	-57.14
-1.14	-4.37	4.53	100.41	202.56	-76.47
0.73	-12.28	-3.43	184.87	250.00	-126.67
-4.33	-19.61	-19.61	49.04	250.00	-144.05
-19.61	-19.61	-19.61	11.97	43.95	70.30
-14.31	-9.44	-19.61	-71.25	-250.01	64.77
-2.57	-17.21	7.21	-214.68	-250.01	101.96
1.37	-5.83	-2.66	-63.02	-210.36	132.06
0.23	-6.24	5.57	-155.30	-70.29	19.27
-1.30	-4.97	6.11	-28.87	14.87	-20.88
-2.54	-5.51	5.38	-27.39	103.18	-73.27
-2.80	-6.68	5.33	42.47	224.62	-68.11
-1.82	-11.48	-6.66	165.42	250.00	-102.40
-9.57	-19.61	-19.61	-73.31	250.00	-88.81
-19.61	-14.90	-19.61	126.00	-52.00	133.85
-6.36	-6.77	-19.61	-84.15	-250.01	91.47
-3.54	-15.28	2.47	-129.47	-250.01	63.97
0.16	-6.68	-1.25	-72.60	-236.85	99.19
1.10	-5.63	2.69	-77.88	-101.11	7.87
-1.82	-5.00	5.76	-43.82	-27.77	-46.42
-2.66	-6.15	6.45	15.92	76.57	-60.82
-2.84	-6.80	4.52	2.43	226.46	-84.73
-3.35	-12.30	-6.10	220.33	250.00	-78.14
-9.48	-18.70	-19.61	-247.91	250.00	-156.09
-19.61	-18.15	-19.61	170.51	16.62	148.08
-1.98	-9.50	-19.61	-40.80	-250.01	156.06
-4.30	-8.42	-4.74	-24.83	-250.01	93.57
-0.50	-3.98	1.95	-38.16	-205.96	113.76
-0.43	-3.74	4.38	-114.76	-72.73	0.89
-2.50	-4.40	6.08	-11.08	13.27	-27.92
-1.38	-5.13	4.30	-10.43	126.61	-76.82
-0.32	-7.50	2.50	51.43	250.00	-92.99
1.52	-12.82	-13.86	166.08	250.00	-120.72
-11.62	-16.61	-19.61	-180.03	172.61	-178.33
-19.61	-17.97	-19.61	41.73	-62.45	7.90
-5.73	-13.69	-19.61	8.13	-250.01	131.44
-3.85	-8.04	-7.11	-38.80	-250.01	124.87
0.01	-5.24	-1.60	-91.43	-214.14	106.15
-1.26	-5.92	4.06	-40.56	-143.02	55.33
-1.56	-4.26	4.33	10.41	-93.47	21.03
-2.20	-4.23	4.44	-3.06	3.38	-30.13
-2.25	-6.11	4.76	-20.26	139.23	-84.38
-3.17	-7.39	0.34	111.00	250.00	-64.23
-6.42	-10.58	-19.61	205.66	250.00	-42.95
-16.45	-13.50	-19.61	-243.78	87.74	-163.28
-14.67	-16.37	-19.61	30.57	-250.01	27.52
-0.57	-9.00	-19.61	-61.24	-250.01	140.77
-1.25	-3.87	-7.96	4.14	-250.01	80.67
0.48	-5.07	2.34	-93.17	-191.84	18.40
-2.21	-6.54	8.34	-68.90	-90.46	-14.48
-2.21	-7.13	8.50	-41.96	88.61	-19.75
-2.96	-6.91	7.13	-13.44	231.15	3.82
-3.63	-8.42	3.54	134.69	250.00	-6.09
-2.36	-10.42	-19.61	250.00	250.00	-51.80
-16.03	-16.49	-19.61	-250.01	114.31	-85.07
-17.73	-15.27	-19.61	62.45	-250.01	2.31
-2.89	-9.84	-16.51	17.72	-250.01	111.96
-1.33	-8.52	-0.49	-3.88	-249.36	137.88
-0.91	-4.40	1.64	-84.43	-160.18	63.72
-1.07	-4.31	4.64	-22.34	-55.23	16.69
-1.04	-5.62	5.31	-18.40	28.89	-49.20
-1.59	-5.51	5.08	-4.42	148.98	-57.31
-0.69	-8.40	3.02	47.88	250.00	-83.76
-4.24	-12.38	-17.93	223.42	250.00	-67.51
-16.45	-19.61	-19.61	-200.58	149.23	-101.13
-18.98	-16.19	-19.40	107.47	-250.01	73.15
-2.78	-7.18	-19.61	-42.60	-250.01	125.00
-2.82	-6.88	-8.56	-34.45	-250.01	122.39
-0.04	-5.65	0.25	-54.39	-181.50	59.04
-0.99	-6.64	4.85	-33.20	-86.97	-34.50
-1.48	-7.09	5.63	25.93	12.38	-32.82
-1.46	-5.03	4.61	-23.06	121.07	-61.69
-1.29	-9.27	3.73	77.14	250.00	-78.07
-1.81	-12.41	-17.46	177.05	250.00	-81.81
-16.76	-19.61	-19.61	-227.89	185.09	-96.84
-19.61	-16.56	-19.61	63.55	-181.00	58.40
-0.22	-12.51	-19.61	-24.01	-250.01	133.08
-1.02	-6.89	-8.66	-19.51	-250.01	158.07
0.25	-4.35	-0.30	-24.86	-172.66	117.48
-0.17	-4.81	4.31	-72.05	-59.65	16.56
-1.36	-4.79	4.57	-20.94	21.38	-44.41
-2.05	-6.35	4.56	-6.84	138.93	-79.93
-1.73	-8.64	2.83	74.68	248.75	-121.18
-0.77	-14.85	-12.23	144.62	250.00	-143.80
-9.99	-19.61	-19.61	-129.25	231.94	-97.42
-19.02	-19.61	-19.61	126.24	-69.86	78.43
-7.13	-15.83	-19.61	-93.88	-231.80	115.11
-2.78	-12.00	-5.08	-63.54	-250.01	152.69
1.24	-5.64	-1.98	-92.89	-226.39	144.35
-0.20	-5.41	4.18	-111.90	-114.31	36.23
-0.72	-4.07	4.75	-52.35	-26.52	-5.64
-1.30	-5.52	5.80	-41.17	86.86	-74.98
-0.72	-6.02	3.21	43.20	208.04	-120.16
-0.07	-11.25	-5.31	115.54	250.00	-164.06
-2.69	-19.61	-19.61	-94.31	250.00	-157.20
-19.61	-18.30	-19.61	69.80	48.64	99.54
-9.47	-8.78	-19.61	-23.39	-246.73	36.03
-4.24	-17.64	-9.86	-74.24	-244.82	81.80
-1.22	-10.10	-5.05	-56.41	-239.56	89.37
-0.90	-8.47	0.83	-52.61	-184.76	79.49
-0.61	-6.51	3.87	-55.48	-128.42	32.30
-0.48	-7.55	7.69	-36.99	4.27	3.43
-0.37	-5.02	5.31	10.58	130.07	-43.14
-0.57	-7.02	3.53	79.76	250.00	-96.74
-1.22	-13.36	-15.23	184.90	250.00	-168.11
-14.47	-19.61	-19.61	-146.12	232.63	-103.75
-14.11	-18.77	-19.61	53.65	-228.13	86.37
-2.33	-13.37	-19.36	-30.34	-250.01	173.83
-0.42	-10.83	-10.87	-101.41	-250.01	122.30
0.00	-8.40	-0.38	-57.41	-239.78	106.36
0.07	-6.42	4.34	-90.82	-165.52	74.93
-0.58	-5.01	7.76	-4.10	-38.37	54.85
-1.50	-3.76	7.28	-35.78	80.48	-63.72
-0.96	-5.80	5.89	103.96	232.00	-96.62
-0.57	-10.52	-5.10	194.67	250.00	-188.40
-10.56	-19.61	-19.61	-55.02	250.00	-207.66
-19.61	-19.61	-19.61	-107.52	127.78	43.90
-6.60	-18.06	-19.61	-3.62	-250.01	46.40
1.04	-9.85	-9.54	-141.22	-250.01	122.35
1.26	-7.51	-1.87	-153.94	-250.01	93.60
-0.09	-7.84	3.31	-111.84	-174.28	28.21
-0.18	-6.17	7.52	-57.00	-47.44	19.72
-1.12	-7.13	7.98	-38.57	62.83	-29.25
-1.79	-6.81	6.23	38.66	156.07	-43.30
-0.79	-8.71	1.86	108.57	250.00	-79.71
-2.96	-14.66	-17.13	184.95	250.00	-125.02
-18.82	-19.61	-19.61	-18.33	191.22	-10.12
-19.02	-13.61	-19.61	25.07	-155.35	66.66
-2.18	-12.84	-19.61	-57.20	-246.74	110.44
-0.91	-8.94	-8.58	-13.30	-250.01	150.24
0.52	-5.66	0.58	-95.16	-189.52	93.47
-1.01	-6.29	6.37	-25.04	-90.37	33.69
-0.91	-5.61	6.68	-23.82	13.09	-5.09
-1.70	-4.71	6.22	28.82	122.48	-28.37
-0.51	-6.20	4.46	70.35	231.80	-82.26
3.14	-10.57	-7.47	198.29	250.00	-130.54
-6.85	-19.61	-19.61	-84.64	250.00	-211.79
-19.61	-19.61	-19.61	120.34	29.87	20.23
-5.81	-16.20	-19.61	-53.43	-250.01	58.10
-0.22	-16.36	-6.01	-100.20	-250.01	126.13
2.74	-8.90	-1.38	-71.93	-250.01	169.83
0.83	-6.20	5.47	-92.56	-183.94	76.90
0.24	-4.47	7.88	-22.26	-56.61	38.26
-1.68	-3.74	8.06	-13.73	89.47	-27.45
